digraph Tree {
node [shape=box, fontname="helvetica"] ;
edge [fontname="helvetica"] ;
0 [label="x[39339] <= 0.028\ngini = 0.5\nsamples = 95990\nvalue = [48046, 47944]"] ;
1 [label="x[165144] <= 0.026\ngini = 0.491\nsamples = 82188\nvalue = [46693, 35495]"] ;
0 -> 1 [labeldistance=2.5, labelangle=45, headlabel="True"] ;
2 [label="x[72539] <= 0.019\ngini = 0.469\nsamples = 73941\nvalue = [46162, 27779]"] ;
1 -> 2 ;
3 [label="x[32645] <= 0.011\ngini = 0.487\nsamples = 65704\nvalue = [38115, 27589]"] ;
2 -> 3 ;
4 [label="x[37221] <= 0.022\ngini = 0.478\nsamples = 62408\nvalue = [37761, 24647]"] ;
3 -> 4 ;
5 [label="x[61509] <= 0.018\ngini = 0.467\nsamples = 59647\nvalue = [37430, 22217]"] ;
4 -> 5 ;
6 [label="x[37220] <= 0.125\ngini = 0.456\nsamples = 57240\nvalue = [37095, 20145]"] ;
5 -> 6 ;
7 [label="x[10960] <= 0.025\ngini = 0.444\nsamples = 55163\nvalue = [36802, 18361]"] ;
6 -> 7 ;
8 [label="x[97808] <= 0.019\ngini = 0.438\nsamples = 54276\nvalue = [36725, 17551]"] ;
7 -> 8 ;
9 [label="x[73093] <= 0.016\ngini = 0.448\nsamples = 51709\nvalue = [34188, 17521]"] ;
8 -> 9 ;
10 [label="x[97831] <= 0.015\ngini = 0.443\nsamples = 50993\nvalue = [34136, 16857]"] ;
9 -> 10 ;
11 [label="x[46636] <= 0.024\ngini = 0.449\nsamples = 49463\nvalue = [32622, 16841]"] ;
10 -> 11 ;
12 [label="x[68505] <= 0.051\ngini = 0.454\nsamples = 48281\nvalue = [31471, 16810]"] ;
11 -> 12 ;
13 [label="x[14161] <= 0.034\ngini = 0.458\nsamples = 47246\nvalue = [30458, 16788]"] ;
12 -> 13 ;
14 [label="x[67407] <= 0.035\ngini = 0.461\nsamples = 46480\nvalue = [29705, 16775]"] ;
13 -> 14 ;
15 [label="x[39340] <= 0.042\ngini = 0.464\nsamples = 45807\nvalue = [29037, 16770]"] ;
14 -> 15 ;
16 [label="x[67144] <= 0.036\ngini = 0.462\nsamples = 45536\nvalue = [29013, 16523]"] ;
15 -> 16 ;
17 [label="x[140132] <= 0.074\ngini = 0.465\nsamples = 44967\nvalue = [28445, 16522]"] ;
16 -> 17 ;
18 [label="x[17473] <= 0.021\ngini = 0.462\nsamples = 44140\nvalue = [28150, 15990]"] ;
17 -> 18 ;
19 [label="x[122620] <= 0.055\ngini = 0.458\nsamples = 42244\nvalue = [27253.0, 14991.0]"] ;
18 -> 19 ;
20 [label="x[136276] <= 0.04\ngini = 0.456\nsamples = 41886\nvalue = [27155, 14731]"] ;
19 -> 20 ;
21 [label="x[119040] <= 0.079\ngini = 0.458\nsamples = 41548\nvalue = [26820, 14728]"] ;
20 -> 21 ;
22 [label="x[84644] <= 0.075\ngini = 0.456\nsamples = 41297\nvalue = [26755, 14542]"] ;
21 -> 22 ;
23 [label="x[81971] <= 0.039\ngini = 0.455\nsamples = 40987\nvalue = [26660.0, 14327.0]"] ;
22 -> 23 ;
24 [label="x[69338] <= 0.117\ngini = 0.456\nsamples = 40691\nvalue = [26368, 14323]"] ;
23 -> 24 ;
25 [label="x[117166] <= 0.058\ngini = 0.455\nsamples = 40372\nvalue = [26260.0, 14112.0]"] ;
24 -> 25 ;
26 [label="x[66606] <= 0.085\ngini = 0.454\nsamples = 40301\nvalue = [26260, 14041]"] ;
25 -> 26 ;
27 [label="x[49466] <= 0.027\ngini = 0.452\nsamples = 39955\nvalue = [26135.0, 13820.0]"] ;
26 -> 27 ;
28 [label="gini = 0.451\nsamples = 39553\nvalue = [25978.0, 13575.0]"] ;
27 -> 28 ;
29 [label="gini = 0.476\nsamples = 402\nvalue = [157.0, 245.0]"] ;
27 -> 29 ;
30 [label="x[165195] <= 0.054\ngini = 0.462\nsamples = 346\nvalue = [125.0, 221.0]"] ;
26 -> 30 ;
31 [label="gini = 0.456\nsamples = 341\nvalue = [120, 221]"] ;
30 -> 31 ;
32 [label="gini = 0.0\nsamples = 5\nvalue = [5, 0]"] ;
30 -> 32 ;
33 [label="gini = 0.0\nsamples = 71\nvalue = [0, 71]"] ;
25 -> 33 ;
34 [label="x[69238] <= 0.065\ngini = 0.448\nsamples = 319\nvalue = [108, 211]"] ;
24 -> 34 ;
35 [label="x[32562] <= 0.074\ngini = 0.434\nsamples = 302\nvalue = [96, 206]"] ;
34 -> 35 ;
36 [label="x[32574] <= 0.07\ngini = 0.427\nsamples = 298\nvalue = [92, 206]"] ;
35 -> 36 ;
37 [label="gini = 0.419\nsamples = 294\nvalue = [88, 206]"] ;
36 -> 37 ;
38 [label="gini = 0.0\nsamples = 4\nvalue = [4, 0]"] ;
36 -> 38 ;
39 [label="gini = 0.0\nsamples = 4\nvalue = [4, 0]"] ;
35 -> 39 ;
40 [label="x[69238] <= 0.156\ngini = 0.415\nsamples = 17\nvalue = [12, 5]"] ;
34 -> 40 ;
41 [label="gini = 0.0\nsamples = 5\nvalue = [5, 0]"] ;
40 -> 41 ;
42 [label="x[69338] <= 0.151\ngini = 0.486\nsamples = 12\nvalue = [7, 5]"] ;
40 -> 42 ;
43 [label="gini = 0.0\nsamples = 2\nvalue = [0, 2]"] ;
42 -> 43 ;
44 [label="gini = 0.42\nsamples = 10\nvalue = [7, 3]"] ;
42 -> 44 ;
45 [label="x[142982] <= 0.235\ngini = 0.027\nsamples = 296\nvalue = [292, 4]"] ;
23 -> 45 ;
46 [label="x[41556] <= 0.194\ngini = 0.02\nsamples = 294\nvalue = [291.0, 3.0]"] ;
45 -> 46 ;
47 [label="x[160338] <= 0.186\ngini = 0.014\nsamples = 292\nvalue = [290, 2]"] ;
46 -> 47 ;
48 [label="x[34000] <= 0.25\ngini = 0.007\nsamples = 290\nvalue = [289, 1]"] ;
47 -> 48 ;
49 [label="gini = 0.0\nsamples = 288\nvalue = [288, 0]"] ;
48 -> 49 ;
50 [label="gini = 0.5\nsamples = 2\nvalue = [1, 1]"] ;
48 -> 50 ;
51 [label="gini = 0.5\nsamples = 2\nvalue = [1, 1]"] ;
47 -> 51 ;
52 [label="gini = 0.5\nsamples = 2\nvalue = [1, 1]"] ;
46 -> 52 ;
53 [label="gini = 0.5\nsamples = 2\nvalue = [1, 1]"] ;
45 -> 53 ;
54 [label="x[20218] <= 0.205\ngini = 0.425\nsamples = 310\nvalue = [95.0, 215.0]"] ;
22 -> 54 ;
55 [label="x[32562] <= 0.042\ngini = 0.418\nsamples = 306\nvalue = [91.0, 215.0]"] ;
54 -> 55 ;
56 [label="x[5615] <= 0.07\ngini = 0.409\nsamples = 300\nvalue = [86, 214]"] ;
55 -> 56 ;
57 [label="x[120279] <= 0.07\ngini = 0.403\nsamples = 297\nvalue = [83.0, 214.0]"] ;
56 -> 57 ;
58 [label="x[39835] <= 0.043\ngini = 0.396\nsamples = 294\nvalue = [80.0, 214.0]"] ;
57 -> 58 ;
59 [label="gini = 0.389\nsamples = 291\nvalue = [77.0, 214.0]"] ;
58 -> 59 ;
60 [label="gini = 0.0\nsamples = 3\nvalue = [3, 0]"] ;
58 -> 60 ;
61 [label="gini = 0.0\nsamples = 3\nvalue = [3, 0]"] ;
57 -> 61 ;
62 [label="gini = 0.0\nsamples = 3\nvalue = [3, 0]"] ;
56 -> 62 ;
63 [label="x[106900] <= 0.098\ngini = 0.278\nsamples = 6\nvalue = [5, 1]"] ;
55 -> 63 ;
64 [label="gini = 0.0\nsamples = 5\nvalue = [5, 0]"] ;
63 -> 64 ;
65 [label="gini = 0.0\nsamples = 1\nvalue = [0, 1]"] ;
63 -> 65 ;
66 [label="gini = 0.0\nsamples = 4\nvalue = [4, 0]"] ;
54 -> 66 ;
67 [label="x[8523] <= 0.073\ngini = 0.384\nsamples = 251\nvalue = [65, 186]"] ;
21 -> 67 ;
68 [label="x[8900] <= 0.073\ngini = 0.375\nsamples = 248\nvalue = [62, 186]"] ;
67 -> 68 ;
69 [label="x[119040] <= 0.196\ngini = 0.366\nsamples = 245\nvalue = [59, 186]"] ;
68 -> 69 ;
70 [label="x[84191] <= 0.154\ngini = 0.43\nsamples = 131\nvalue = [41, 90]"] ;
69 -> 70 ;
71 [label="x[54642] <= 0.15\ngini = 0.452\nsamples = 119\nvalue = [41, 78]"] ;
70 -> 71 ;
72 [label="x[37220] <= 0.043\ngini = 0.444\nsamples = 117\nvalue = [39, 78]"] ;
71 -> 72 ;
73 [label="gini = 0.436\nsamples = 115\nvalue = [37, 78]"] ;
72 -> 73 ;
74 [label="gini = 0.0\nsamples = 2\nvalue = [2, 0]"] ;
72 -> 74 ;
75 [label="gini = 0.0\nsamples = 2\nvalue = [2, 0]"] ;
71 -> 75 ;
76 [label="gini = 0.0\nsamples = 12\nvalue = [0, 12]"] ;
70 -> 76 ;
77 [label="x[135757] <= 0.204\ngini = 0.266\nsamples = 114\nvalue = [18, 96]"] ;
69 -> 77 ;
78 [label="x[84616] <= 0.167\ngini = 0.245\nsamples = 112\nvalue = [16, 96]"] ;
77 -> 78 ;
79 [label="x[153079] <= 0.124\ngini = 0.234\nsamples = 111\nvalue = [15, 96]"] ;
78 -> 79 ;
80 [label="gini = 0.222\nsamples = 110\nvalue = [14.0, 96.0]"] ;
79 -> 80 ;
81 [label="gini = 0.0\nsamples = 1\nvalue = [1, 0]"] ;
79 -> 81 ;
82 [label="gini = 0.0\nsamples = 1\nvalue = [1, 0]"] ;
78 -> 82 ;
83 [label="gini = 0.0\nsamples = 2\nvalue = [2, 0]"] ;
77 -> 83 ;
84 [label="gini = 0.0\nsamples = 3\nvalue = [3, 0]"] ;
68 -> 84 ;
85 [label="gini = 0.0\nsamples = 3\nvalue = [3, 0]"] ;
67 -> 85 ;
86 [label="x[162105] <= 0.105\ngini = 0.018\nsamples = 338\nvalue = [335, 3]"] ;
20 -> 86 ;
87 [label="x[63425] <= 0.17\ngini = 0.012\nsamples = 337\nvalue = [335, 2]"] ;
86 -> 87 ;
88 [label="x[158989] <= 0.292\ngini = 0.006\nsamples = 335\nvalue = [334, 1]"] ;
87 -> 88 ;
89 [label="gini = 0.0\nsamples = 333\nvalue = [333, 0]"] ;
88 -> 89 ;
90 [label="gini = 0.5\nsamples = 2\nvalue = [1, 1]"] ;
88 -> 90 ;
91 [label="gini = 0.5\nsamples = 2\nvalue = [1, 1]"] ;
87 -> 91 ;
92 [label="gini = 0.0\nsamples = 1\nvalue = [0, 1]"] ;
86 -> 92 ;
93 [label="x[39835] <= 0.046\ngini = 0.398\nsamples = 358\nvalue = [98, 260]"] ;
19 -> 93 ;
94 [label="x[69042] <= 0.112\ngini = 0.388\nsamples = 353\nvalue = [93, 260]"] ;
93 -> 94 ;
95 [label="x[46489] <= 0.15\ngini = 0.38\nsamples = 349\nvalue = [89, 260]"] ;
94 -> 95 ;
96 [label="x[32574] <= 0.081\ngini = 0.374\nsamples = 346\nvalue = [86, 260]"] ;
95 -> 96 ;
97 [label="x[68568] <= 0.07\ngini = 0.367\nsamples = 343\nvalue = [83, 260]"] ;
96 -> 97 ;
98 [label="x[19280] <= 0.225\ngini = 0.36\nsamples = 340\nvalue = [80, 260]"] ;
97 -> 98 ;
99 [label="x[122620] <= 0.231\ngini = 0.353\nsamples = 337\nvalue = [77, 260]"] ;
98 -> 99 ;
100 [label="x[125070] <= 0.065\ngini = 0.402\nsamples = 212\nvalue = [59, 153]"] ;
99 -> 100 ;
101 [label="gini = 0.392\nsamples = 209\nvalue = [56, 153]"] ;
100 -> 101 ;
102 [label="gini = 0.0\nsamples = 3\nvalue = [3, 0]"] ;
100 -> 102 ;
103 [label="x[22024] <= 0.206\ngini = 0.247\nsamples = 125\nvalue = [18, 107]"] ;
99 -> 103 ;
104 [label="gini = 0.226\nsamples = 123\nvalue = [16, 107]"] ;
103 -> 104 ;
105 [label="gini = 0.0\nsamples = 2\nvalue = [2, 0]"] ;
103 -> 105 ;
106 [label="gini = 0.0\nsamples = 3\nvalue = [3, 0]"] ;
98 -> 106 ;
107 [label="gini = 0.0\nsamples = 3\nvalue = [3, 0]"] ;
97 -> 107 ;
108 [label="gini = 0.0\nsamples = 3\nvalue = [3, 0]"] ;
96 -> 108 ;
109 [label="gini = 0.0\nsamples = 3\nvalue = [3, 0]"] ;
95 -> 109 ;
110 [label="gini = 0.0\nsamples = 4\nvalue = [4, 0]"] ;
94 -> 110 ;
111 [label="gini = 0.0\nsamples = 5\nvalue = [5, 0]"] ;
93 -> 111 ;
112 [label="x[119040] <= 0.171\ngini = 0.499\nsamples = 1896\nvalue = [897.0, 999.0]"] ;
18 -> 112 ;
113 [label="x[136276] <= 0.06\ngini = 0.499\nsamples = 1870\nvalue = [896, 974]"] ;
112 -> 113 ;
114 [label="x[3700] <= 0.038\ngini = 0.499\nsamples = 1851\nvalue = [879.0, 972.0]"] ;
113 -> 114 ;
115 [label="x[150214] <= 0.109\ngini = 0.498\nsamples = 1837\nvalue = [866, 971]"] ;
114 -> 115 ;
116 [label="x[81971] <= 0.036\ngini = 0.498\nsamples = 1823\nvalue = [853, 970]"] ;
115 -> 116 ;
117 [label="x[136295] <= 0.156\ngini = 0.497\nsamples = 1806\nvalue = [838.0, 968.0]"] ;
116 -> 117 ;
118 [label="x[119044] <= 0.129\ngini = 0.497\nsamples = 1797\nvalue = [829, 968]"] ;
117 -> 118 ;
119 [label="x[143264] <= 0.185\ngini = 0.498\nsamples = 1782\nvalue = [828, 954]"] ;
118 -> 119 ;
120 [label="x[47932] <= 0.045\ngini = 0.498\nsamples = 1764\nvalue = [826, 938]"] ;
119 -> 120 ;
121 [label="gini = 0.498\nsamples = 1750\nvalue = [814.0, 936.0]"] ;
120 -> 121 ;
122 [label="gini = 0.245\nsamples = 14\nvalue = [12, 2]"] ;
120 -> 122 ;
123 [label="x[102299] <= 0.057\ngini = 0.198\nsamples = 18\nvalue = [2, 16]"] ;
119 -> 123 ;
124 [label="gini = 0.111\nsamples = 17\nvalue = [1, 16]"] ;
123 -> 124 ;
125 [label="gini = 0.0\nsamples = 1\nvalue = [1, 0]"] ;
123 -> 125 ;
126 [label="x[47490] <= 0.1\ngini = 0.124\nsamples = 15\nvalue = [1, 14]"] ;
118 -> 126 ;
127 [label="gini = 0.0\nsamples = 14\nvalue = [0, 14]"] ;
126 -> 127 ;
128 [label="gini = 0.0\nsamples = 1\nvalue = [1, 0]"] ;
126 -> 128 ;
129 [label="gini = 0.0\nsamples = 9\nvalue = [9, 0]"] ;
117 -> 129 ;
130 [label="x[81971] <= 0.25\ngini = 0.208\nsamples = 17\nvalue = [15, 2]"] ;
116 -> 130 ;
131 [label="gini = 0.0\nsamples = 14\nvalue = [14, 0]"] ;
130 -> 131 ;
132 [label="x[81971] <= 0.303\ngini = 0.444\nsamples = 3\nvalue = [1, 2]"] ;
130 -> 132 ;
133 [label="gini = 0.0\nsamples = 2\nvalue = [0, 2]"] ;
132 -> 133 ;
134 [label="gini = 0.0\nsamples = 1\nvalue = [1, 0]"] ;
132 -> 134 ;
135 [label="x[132986] <= 0.164\ngini = 0.133\nsamples = 14\nvalue = [13, 1]"] ;
115 -> 135 ;
136 [label="gini = 0.0\nsamples = 12\nvalue = [12, 0]"] ;
135 -> 136 ;
137 [label="gini = 0.5\nsamples = 2\nvalue = [1, 1]"] ;
135 -> 137 ;
138 [label="x[162920] <= 0.197\ngini = 0.133\nsamples = 14\nvalue = [13, 1]"] ;
114 -> 138 ;
139 [label="gini = 0.0\nsamples = 13\nvalue = [13, 0]"] ;
138 -> 139 ;
140 [label="gini = 0.0\nsamples = 1\nvalue = [0, 1]"] ;
138 -> 140 ;
141 [label="x[71179] <= 0.158\ngini = 0.188\nsamples = 19\nvalue = [17, 2]"] ;
113 -> 141 ;
142 [label="x[112324] <= 0.227\ngini = 0.105\nsamples = 18\nvalue = [17, 1]"] ;
141 -> 142 ;
143 [label="gini = 0.0\nsamples = 16\nvalue = [16, 0]"] ;
142 -> 143 ;
144 [label="gini = 0.5\nsamples = 2\nvalue = [1, 1]"] ;
142 -> 144 ;
145 [label="gini = 0.0\nsamples = 1\nvalue = [0, 1]"] ;
141 -> 145 ;
146 [label="x[121747] <= 0.193\ngini = 0.074\nsamples = 26\nvalue = [1, 25]"] ;
112 -> 146 ;
147 [label="gini = 0.0\nsamples = 24\nvalue = [0, 24]"] ;
146 -> 147 ;
148 [label="gini = 0.5\nsamples = 2\nvalue = [1, 1]"] ;
146 -> 148 ;
149 [label="x[69238] <= 0.1\ngini = 0.459\nsamples = 827\nvalue = [295, 532]"] ;
17 -> 149 ;
150 [label="x[140132] <= 0.141\ngini = 0.446\nsamples = 796\nvalue = [267, 529]"] ;
149 -> 150 ;
151 [label="x[84644] <= 0.043\ngini = 0.489\nsamples = 365\nvalue = [155, 210]"] ;
150 -> 151 ;
152 [label="x[104447] <= 0.111\ngini = 0.492\nsamples = 351\nvalue = [154.0, 197.0]"] ;
151 -> 152 ;
153 [label="x[122620] <= 0.038\ngini = 0.495\nsamples = 342\nvalue = [154, 188]"] ;
152 -> 153 ;
154 [label="x[59400] <= 0.213\ngini = 0.497\nsamples = 330\nvalue = [153, 177]"] ;
153 -> 154 ;
155 [label="x[111163] <= 0.121\ngini = 0.496\nsamples = 325\nvalue = [148, 177]"] ;
154 -> 155 ;
156 [label="x[54645] <= 0.149\ngini = 0.494\nsamples = 320\nvalue = [143, 177]"] ;
155 -> 156 ;
157 [label="x[22580] <= 0.065\ngini = 0.493\nsamples = 316\nvalue = [139, 177]"] ;
156 -> 157 ;
158 [label="x[85748] <= 0.135\ngini = 0.491\nsamples = 312\nvalue = [135, 177]"] ;
157 -> 158 ;
159 [label="gini = 0.489\nsamples = 308\nvalue = [131, 177]"] ;
158 -> 159 ;
160 [label="gini = 0.0\nsamples = 4\nvalue = [4, 0]"] ;
158 -> 160 ;
161 [label="gini = 0.0\nsamples = 4\nvalue = [4, 0]"] ;
157 -> 161 ;
162 [label="gini = 0.0\nsamples = 4\nvalue = [4, 0]"] ;
156 -> 162 ;
163 [label="gini = 0.0\nsamples = 5\nvalue = [5, 0]"] ;
155 -> 163 ;
164 [label="gini = 0.0\nsamples = 5\nvalue = [5, 0]"] ;
154 -> 164 ;
165 [label="x[102721] <= 0.112\ngini = 0.153\nsamples = 12\nvalue = [1, 11]"] ;
153 -> 165 ;
166 [label="gini = 0.0\nsamples = 11\nvalue = [0, 11]"] ;
165 -> 166 ;
167 [label="gini = 0.0\nsamples = 1\nvalue = [1, 0]"] ;
165 -> 167 ;
168 [label="gini = 0.0\nsamples = 9\nvalue = [0, 9]"] ;
152 -> 168 ;
169 [label="x[10963] <= 0.072\ngini = 0.133\nsamples = 14\nvalue = [1, 13]"] ;
151 -> 169 ;
170 [label="gini = 0.0\nsamples = 13\nvalue = [0, 13]"] ;
169 -> 170 ;
171 [label="gini = 0.0\nsamples = 1\nvalue = [1, 0]"] ;
169 -> 171 ;
172 [label="x[59400] <= 0.078\ngini = 0.385\nsamples = 431\nvalue = [112, 319]"] ;
150 -> 172 ;
173 [label="x[7373] <= 0.056\ngini = 0.377\nsamples = 425\nvalue = [107, 318]"] ;
172 -> 173 ;
174 [label="x[114575] <= 0.067\ngini = 0.371\nsamples = 422\nvalue = [104, 318]"] ;
173 -> 174 ;
175 [label="x[84512] <= 0.175\ngini = 0.365\nsamples = 417\nvalue = [100, 317]"] ;
174 -> 175 ;
176 [label="x[69232] <= 0.211\ngini = 0.361\nsamples = 415\nvalue = [98, 317]"] ;
175 -> 176 ;
177 [label="x[122502] <= 0.122\ngini = 0.357\nsamples = 413\nvalue = [96, 317]"] ;
176 -> 177 ;
178 [label="x[39895] <= 0.265\ngini = 0.353\nsamples = 411\nvalue = [94, 317]"] ;
177 -> 178 ;
179 [label="x[163270] <= 0.152\ngini = 0.349\nsamples = 409\nvalue = [92, 317]"] ;
178 -> 179 ;
180 [label="gini = 0.344\nsamples = 407\nvalue = [90, 317]"] ;
179 -> 180 ;
181 [label="gini = 0.0\nsamples = 2\nvalue = [2, 0]"] ;
179 -> 181 ;
182 [label="gini = 0.0\nsamples = 2\nvalue = [2, 0]"] ;
178 -> 182 ;
183 [label="gini = 0.0\nsamples = 2\nvalue = [2, 0]"] ;
177 -> 183 ;
184 [label="gini = 0.0\nsamples = 2\nvalue = [2, 0]"] ;
176 -> 184 ;
185 [label="gini = 0.0\nsamples = 2\nvalue = [2, 0]"] ;
175 -> 185 ;
186 [label="x[114575] <= 0.318\ngini = 0.32\nsamples = 5\nvalue = [4, 1]"] ;
174 -> 186 ;
187 [label="gini = 0.0\nsamples = 4\nvalue = [4, 0]"] ;
186 -> 187 ;
188 [label="gini = 0.0\nsamples = 1\nvalue = [0, 1]"] ;
186 -> 188 ;
189 [label="gini = 0.0\nsamples = 3\nvalue = [3, 0]"] ;
173 -> 189 ;
190 [label="x[140132] <= 0.329\ngini = 0.278\nsamples = 6\nvalue = [5, 1]"] ;
172 -> 190 ;
191 [label="gini = 0.0\nsamples = 5\nvalue = [5, 0]"] ;
190 -> 191 ;
192 [label="gini = 0.0\nsamples = 1\nvalue = [0, 1]"] ;
190 -> 192 ;
193 [label="x[31338] <= 0.103\ngini = 0.175\nsamples = 31\nvalue = [28, 3]"] ;
149 -> 193 ;
194 [label="x[49578] <= 0.294\ngini = 0.124\nsamples = 30\nvalue = [28, 2]"] ;
193 -> 194 ;
195 [label="x[26314] <= 0.122\ngini = 0.067\nsamples = 29\nvalue = [28, 1]"] ;
194 -> 195 ;
196 [label="gini = 0.0\nsamples = 27\nvalue = [27, 0]"] ;
195 -> 196 ;
197 [label="gini = 0.5\nsamples = 2\nvalue = [1, 1]"] ;
195 -> 197 ;
198 [label="gini = 0.0\nsamples = 1\nvalue = [0, 1]"] ;
194 -> 198 ;
199 [label="gini = 0.0\nsamples = 1\nvalue = [0, 1]"] ;
193 -> 199 ;
200 [label="x[6702] <= 0.102\ngini = 0.004\nsamples = 569\nvalue = [568.0, 1.0]"] ;
16 -> 200 ;
201 [label="gini = 0.0\nsamples = 567\nvalue = [567, 0]"] ;
200 -> 201 ;
202 [label="gini = 0.5\nsamples = 2\nvalue = [1, 1]"] ;
200 -> 202 ;
203 [label="x[36576] <= 0.069\ngini = 0.161\nsamples = 271\nvalue = [24, 247]"] ;
15 -> 203 ;
204 [label="x[75722] <= 0.054\ngini = 0.15\nsamples = 269\nvalue = [22, 247]"] ;
203 -> 204 ;
205 [label="x[33960] <= 0.14\ngini = 0.139\nsamples = 267\nvalue = [20, 247]"] ;
204 -> 205 ;
206 [label="x[33383] <= 0.147\ngini = 0.127\nsamples = 264\nvalue = [18, 246]"] ;
205 -> 206 ;
207 [label="x[56844] <= 0.136\ngini = 0.115\nsamples = 261\nvalue = [16, 245]"] ;
206 -> 207 ;
208 [label="x[157370] <= 0.125\ngini = 0.109\nsamples = 260\nvalue = [15, 245]"] ;
207 -> 208 ;
209 [label="x[101592] <= 0.082\ngini = 0.102\nsamples = 259\nvalue = [14, 245]"] ;
208 -> 209 ;
210 [label="x[51648] <= 0.177\ngini = 0.096\nsamples = 258\nvalue = [13, 245]"] ;
209 -> 210 ;
211 [label="x[12511] <= 0.133\ngini = 0.089\nsamples = 257\nvalue = [12, 245]"] ;
210 -> 211 ;
212 [label="x[121187] <= 0.161\ngini = 0.082\nsamples = 256\nvalue = [11, 245]"] ;
211 -> 212 ;
213 [label="x[13602] <= 0.278\ngini = 0.075\nsamples = 255\nvalue = [10, 245]"] ;
212 -> 213 ;
214 [label="x[24681] <= 0.138\ngini = 0.068\nsamples = 254\nvalue = [9, 245]"] ;
213 -> 214 ;
215 [label="gini = 0.061\nsamples = 253\nvalue = [8.0, 245.0]"] ;
214 -> 215 ;
216 [label="gini = 0.0\nsamples = 1\nvalue = [1, 0]"] ;
214 -> 216 ;
217 [label="gini = 0.0\nsamples = 1\nvalue = [1, 0]"] ;
213 -> 217 ;
218 [label="gini = 0.0\nsamples = 1\nvalue = [1, 0]"] ;
212 -> 218 ;
219 [label="gini = 0.0\nsamples = 1\nvalue = [1, 0]"] ;
211 -> 219 ;
220 [label="gini = 0.0\nsamples = 1\nvalue = [1, 0]"] ;
210 -> 220 ;
221 [label="gini = 0.0\nsamples = 1\nvalue = [1, 0]"] ;
209 -> 221 ;
222 [label="gini = 0.0\nsamples = 1\nvalue = [1, 0]"] ;
208 -> 222 ;
223 [label="gini = 0.0\nsamples = 1\nvalue = [1, 0]"] ;
207 -> 223 ;
224 [label="x[33383] <= 0.344\ngini = 0.444\nsamples = 3\nvalue = [2, 1]"] ;
206 -> 224 ;
225 [label="gini = 0.0\nsamples = 2\nvalue = [2, 0]"] ;
224 -> 225 ;
226 [label="gini = 0.0\nsamples = 1\nvalue = [0, 1]"] ;
224 -> 226 ;
227 [label="x[76778] <= 0.136\ngini = 0.444\nsamples = 3\nvalue = [2, 1]"] ;
205 -> 227 ;
228 [label="gini = 0.0\nsamples = 2\nvalue = [2, 0]"] ;
227 -> 228 ;
229 [label="gini = 0.0\nsamples = 1\nvalue = [0, 1]"] ;
227 -> 229 ;
230 [label="gini = 0.0\nsamples = 2\nvalue = [2, 0]"] ;
204 -> 230 ;
231 [label="gini = 0.0\nsamples = 2\nvalue = [2, 0]"] ;
203 -> 231 ;
232 [label="x[130564] <= 0.12\ngini = 0.015\nsamples = 673\nvalue = [668, 5]"] ;
14 -> 232 ;
233 [label="x[46754] <= 0.11\ngini = 0.012\nsamples = 672\nvalue = [668, 4]"] ;
232 -> 233 ;
234 [label="x[71807] <= 0.153\ngini = 0.009\nsamples = 671\nvalue = [668, 3]"] ;
233 -> 234 ;
235 [label="x[21495] <= 0.272\ngini = 0.006\nsamples = 670\nvalue = [668, 2]"] ;
234 -> 235 ;
236 [label="x[147767] <= 0.223\ngini = 0.003\nsamples = 668\nvalue = [667, 1]"] ;
235 -> 236 ;
237 [label="gini = 0.0\nsamples = 666\nvalue = [666, 0]"] ;
236 -> 237 ;
238 [label="gini = 0.5\nsamples = 2\nvalue = [1, 1]"] ;
236 -> 238 ;
239 [label="gini = 0.5\nsamples = 2\nvalue = [1, 1]"] ;
235 -> 239 ;
240 [label="gini = 0.0\nsamples = 1\nvalue = [0, 1]"] ;
234 -> 240 ;
241 [label="gini = 0.0\nsamples = 1\nvalue = [0, 1]"] ;
233 -> 241 ;
242 [label="gini = 0.0\nsamples = 1\nvalue = [0, 1]"] ;
232 -> 242 ;
243 [label="x[53700] <= 0.058\ngini = 0.033\nsamples = 766\nvalue = [753.0, 13.0]"] ;
13 -> 243 ;
244 [label="x[135300] <= 0.059\ngini = 0.028\nsamples = 764\nvalue = [753, 11]"] ;
243 -> 244 ;
245 [label="x[23337] <= 0.189\ngini = 0.023\nsamples = 761\nvalue = [752, 9]"] ;
244 -> 245 ;
246 [label="x[5270] <= 0.25\ngini = 0.021\nsamples = 760\nvalue = [752, 8]"] ;
245 -> 246 ;
247 [label="x[132779] <= 0.074\ngini = 0.018\nsamples = 759\nvalue = [752, 7]"] ;
246 -> 247 ;
248 [label="x[157875] <= 0.111\ngini = 0.016\nsamples = 758\nvalue = [752, 6]"] ;
247 -> 248 ;
249 [label="x[31844] <= 0.163\ngini = 0.013\nsamples = 757\nvalue = [752, 5]"] ;
248 -> 249 ;
250 [label="x[78090] <= 0.422\ngini = 0.011\nsamples = 756\nvalue = [752, 4]"] ;
249 -> 250 ;
251 [label="x[148389] <= 0.37\ngini = 0.008\nsamples = 755\nvalue = [752, 3]"] ;
250 -> 251 ;
252 [label="x[27380] <= 0.127\ngini = 0.005\nsamples = 754\nvalue = [752, 2]"] ;
251 -> 252 ;
253 [label="x[55661] <= 0.111\ngini = 0.003\nsamples = 752\nvalue = [751, 1]"] ;
252 -> 253 ;
254 [label="gini = 0.0\nsamples = 750\nvalue = [750, 0]"] ;
253 -> 254 ;
255 [label="gini = 0.5\nsamples = 2\nvalue = [1, 1]"] ;
253 -> 255 ;
256 [label="gini = 0.5\nsamples = 2\nvalue = [1, 1]"] ;
252 -> 256 ;
257 [label="gini = 0.0\nsamples = 1\nvalue = [0, 1]"] ;
251 -> 257 ;
258 [label="gini = 0.0\nsamples = 1\nvalue = [0, 1]"] ;
250 -> 258 ;
259 [label="gini = 0.0\nsamples = 1\nvalue = [0, 1]"] ;
249 -> 259 ;
260 [label="gini = 0.0\nsamples = 1\nvalue = [0, 1]"] ;
248 -> 260 ;
261 [label="gini = 0.0\nsamples = 1\nvalue = [0, 1]"] ;
247 -> 261 ;
262 [label="gini = 0.0\nsamples = 1\nvalue = [0, 1]"] ;
246 -> 262 ;
263 [label="gini = 0.0\nsamples = 1\nvalue = [0, 1]"] ;
245 -> 263 ;
264 [label="x[53069] <= 0.101\ngini = 0.444\nsamples = 3\nvalue = [1, 2]"] ;
244 -> 264 ;
265 [label="gini = 0.0\nsamples = 2\nvalue = [0, 2]"] ;
264 -> 265 ;
266 [label="gini = 0.0\nsamples = 1\nvalue = [1, 0]"] ;
264 -> 266 ;
267 [label="gini = 0.0\nsamples = 2\nvalue = [0, 2]"] ;
243 -> 267 ;
268 [label="x[146958] <= 0.25\ngini = 0.042\nsamples = 1035\nvalue = [1013, 22]"] ;
12 -> 268 ;
269 [label="x[56690] <= 0.094\ngini = 0.04\nsamples = 1034\nvalue = [1013, 21]"] ;
268 -> 269 ;
270 [label="x[101080] <= 0.128\ngini = 0.038\nsamples = 1033\nvalue = [1013, 20]"] ;
269 -> 270 ;
271 [label="x[38816] <= 0.121\ngini = 0.036\nsamples = 1032\nvalue = [1013, 19]"] ;
270 -> 271 ;
272 [label="x[44051] <= 0.065\ngini = 0.034\nsamples = 1031\nvalue = [1013, 18]"] ;
271 -> 272 ;
273 [label="x[165105] <= 0.202\ngini = 0.032\nsamples = 1030\nvalue = [1013, 17]"] ;
272 -> 273 ;
274 [label="x[116482] <= 0.112\ngini = 0.031\nsamples = 1029\nvalue = [1013, 16]"] ;
273 -> 274 ;
275 [label="x[7694] <= 0.099\ngini = 0.029\nsamples = 1028\nvalue = [1013, 15]"] ;
274 -> 275 ;
276 [label="x[55022] <= 0.653\ngini = 0.027\nsamples = 1027\nvalue = [1013.0, 14.0]"] ;
275 -> 276 ;
277 [label="x[138982] <= 0.278\ngini = 0.025\nsamples = 1026\nvalue = [1013, 13]"] ;
276 -> 277 ;
278 [label="x[91719] <= 0.272\ngini = 0.023\nsamples = 1025\nvalue = [1013, 12]"] ;
277 -> 278 ;
279 [label="x[28171] <= 0.55\ngini = 0.021\nsamples = 1024\nvalue = [1013, 11]"] ;
278 -> 279 ;
280 [label="x[121390] <= 0.194\ngini = 0.019\nsamples = 1023\nvalue = [1013, 10]"] ;
279 -> 280 ;
281 [label="x[138225] <= 0.175\ngini = 0.017\nsamples = 1021\nvalue = [1012, 9]"] ;
280 -> 281 ;
282 [label="x[131096] <= 0.14\ngini = 0.016\nsamples = 1019\nvalue = [1011.0, 8.0]"] ;
281 -> 282 ;
283 [label="gini = 0.014\nsamples = 1017\nvalue = [1010, 7]"] ;
282 -> 283 ;
284 [label="gini = 0.5\nsamples = 2\nvalue = [1, 1]"] ;
282 -> 284 ;
285 [label="gini = 0.5\nsamples = 2\nvalue = [1, 1]"] ;
281 -> 285 ;
286 [label="gini = 0.5\nsamples = 2\nvalue = [1, 1]"] ;
280 -> 286 ;
287 [label="gini = 0.0\nsamples = 1\nvalue = [0, 1]"] ;
279 -> 287 ;
288 [label="gini = 0.0\nsamples = 1\nvalue = [0, 1]"] ;
278 -> 288 ;
289 [label="gini = 0.0\nsamples = 1\nvalue = [0, 1]"] ;
277 -> 289 ;
290 [label="gini = 0.0\nsamples = 1\nvalue = [0, 1]"] ;
276 -> 290 ;
291 [label="gini = 0.0\nsamples = 1\nvalue = [0, 1]"] ;
275 -> 291 ;
292 [label="gini = 0.0\nsamples = 1\nvalue = [0, 1]"] ;
274 -> 292 ;
293 [label="gini = 0.0\nsamples = 1\nvalue = [0, 1]"] ;
273 -> 293 ;
294 [label="gini = 0.0\nsamples = 1\nvalue = [0, 1]"] ;
272 -> 294 ;
295 [label="gini = 0.0\nsamples = 1\nvalue = [0, 1]"] ;
271 -> 295 ;
296 [label="gini = 0.0\nsamples = 1\nvalue = [0, 1]"] ;
270 -> 296 ;
297 [label="gini = 0.0\nsamples = 1\nvalue = [0, 1]"] ;
269 -> 297 ;
298 [label="gini = 0.0\nsamples = 1\nvalue = [0, 1]"] ;
268 -> 298 ;
299 [label="x[39340] <= 0.051\ngini = 0.051\nsamples = 1182\nvalue = [1151, 31]"] ;
11 -> 299 ;
300 [label="x[155883] <= 0.141\ngini = 0.048\nsamples = 1179\nvalue = [1150, 29]"] ;
299 -> 300 ;
301 [label="x[73982] <= 0.217\ngini = 0.046\nsamples = 1178\nvalue = [1150, 28]"] ;
300 -> 301 ;
302 [label="x[54286] <= 0.148\ngini = 0.045\nsamples = 1177\nvalue = [1150, 27]"] ;
301 -> 302 ;
303 [label="x[112574] <= 0.103\ngini = 0.043\nsamples = 1176\nvalue = [1150, 26]"] ;
302 -> 303 ;
304 [label="x[95570] <= 0.164\ngini = 0.042\nsamples = 1175\nvalue = [1150, 25]"] ;
303 -> 304 ;
305 [label="x[147256] <= 0.08\ngini = 0.04\nsamples = 1174\nvalue = [1150, 24]"] ;
304 -> 305 ;
306 [label="x[45792] <= 0.296\ngini = 0.038\nsamples = 1173\nvalue = [1150, 23]"] ;
305 -> 306 ;
307 [label="x[44471] <= 0.118\ngini = 0.037\nsamples = 1172\nvalue = [1150.0, 22.0]"] ;
306 -> 307 ;
308 [label="x[44029] <= 0.115\ngini = 0.035\nsamples = 1171\nvalue = [1150, 21]"] ;
307 -> 308 ;
309 [label="x[18152] <= 0.208\ngini = 0.034\nsamples = 1170\nvalue = [1150.0, 20.0]"] ;
308 -> 309 ;
310 [label="x[74458] <= 0.203\ngini = 0.032\nsamples = 1169\nvalue = [1150, 19]"] ;
309 -> 310 ;
311 [label="x[45116] <= 0.123\ngini = 0.03\nsamples = 1168\nvalue = [1150, 18]"] ;
310 -> 311 ;
312 [label="x[128676] <= 0.202\ngini = 0.029\nsamples = 1167\nvalue = [1150, 17]"] ;
311 -> 312 ;
313 [label="x[113659] <= 0.201\ngini = 0.027\nsamples = 1166\nvalue = [1150, 16]"] ;
312 -> 313 ;
314 [label="x[7630] <= 0.123\ngini = 0.025\nsamples = 1165\nvalue = [1150, 15]"] ;
313 -> 314 ;
315 [label="gini = 0.024\nsamples = 1164\nvalue = [1150, 14]"] ;
314 -> 315 ;
316 [label="gini = 0.0\nsamples = 1\nvalue = [0, 1]"] ;
314 -> 316 ;
317 [label="gini = 0.0\nsamples = 1\nvalue = [0, 1]"] ;
313 -> 317 ;
318 [label="gini = 0.0\nsamples = 1\nvalue = [0, 1]"] ;
312 -> 318 ;
319 [label="gini = 0.0\nsamples = 1\nvalue = [0, 1]"] ;
311 -> 319 ;
320 [label="gini = 0.0\nsamples = 1\nvalue = [0, 1]"] ;
310 -> 320 ;
321 [label="gini = 0.0\nsamples = 1\nvalue = [0, 1]"] ;
309 -> 321 ;
322 [label="gini = 0.0\nsamples = 1\nvalue = [0, 1]"] ;
308 -> 322 ;
323 [label="gini = 0.0\nsamples = 1\nvalue = [0, 1]"] ;
307 -> 323 ;
324 [label="gini = 0.0\nsamples = 1\nvalue = [0, 1]"] ;
306 -> 324 ;
325 [label="gini = 0.0\nsamples = 1\nvalue = [0, 1]"] ;
305 -> 325 ;
326 [label="gini = 0.0\nsamples = 1\nvalue = [0, 1]"] ;
304 -> 326 ;
327 [label="gini = 0.0\nsamples = 1\nvalue = [0, 1]"] ;
303 -> 327 ;
328 [label="gini = 0.0\nsamples = 1\nvalue = [0, 1]"] ;
302 -> 328 ;
329 [label="gini = 0.0\nsamples = 1\nvalue = [0, 1]"] ;
301 -> 329 ;
330 [label="gini = 0.0\nsamples = 1\nvalue = [0, 1]"] ;
300 -> 330 ;
331 [label="x[14713] <= 0.066\ngini = 0.444\nsamples = 3\nvalue = [1, 2]"] ;
299 -> 331 ;
332 [label="gini = 0.0\nsamples = 1\nvalue = [0, 1]"] ;
331 -> 332 ;
333 [label="gini = 0.5\nsamples = 2\nvalue = [1, 1]"] ;
331 -> 333 ;
334 [label="x[159907] <= 0.08\ngini = 0.021\nsamples = 1530\nvalue = [1514.0, 16.0]"] ;
10 -> 334 ;
335 [label="x[156213] <= 0.183\ngini = 0.019\nsamples = 1529\nvalue = [1514.0, 15.0]"] ;
334 -> 335 ;
336 [label="x[160465] <= 0.179\ngini = 0.018\nsamples = 1528\nvalue = [1514.0, 14.0]"] ;
335 -> 336 ;
337 [label="x[54846] <= 0.108\ngini = 0.017\nsamples = 1527\nvalue = [1514, 13]"] ;
336 -> 337 ;
338 [label="x[44017] <= 0.119\ngini = 0.016\nsamples = 1526\nvalue = [1514.0, 12.0]"] ;
337 -> 338 ;
339 [label="x[30015] <= 0.228\ngini = 0.014\nsamples = 1525\nvalue = [1514, 11]"] ;
338 -> 339 ;
340 [label="x[45438] <= 0.264\ngini = 0.013\nsamples = 1524\nvalue = [1514, 10]"] ;
339 -> 340 ;
341 [label="x[392] <= 0.27\ngini = 0.012\nsamples = 1523\nvalue = [1514, 9]"] ;
340 -> 341 ;
342 [label="x[48684] <= 0.099\ngini = 0.01\nsamples = 1521\nvalue = [1513, 8]"] ;
341 -> 342 ;
343 [label="x[124052] <= 0.096\ngini = 0.009\nsamples = 1519\nvalue = [1512, 7]"] ;
342 -> 343 ;
344 [label="x[110312] <= 0.314\ngini = 0.008\nsamples = 1517\nvalue = [1511, 6]"] ;
343 -> 344 ;
345 [label="x[63011] <= 0.086\ngini = 0.007\nsamples = 1515\nvalue = [1510, 5]"] ;
344 -> 345 ;
346 [label="x[19038] <= 0.141\ngini = 0.005\nsamples = 1513\nvalue = [1509, 4]"] ;
345 -> 346 ;
347 [label="x[47476] <= 0.303\ngini = 0.004\nsamples = 1511\nvalue = [1508, 3]"] ;
346 -> 347 ;
348 [label="x[64655] <= 0.19\ngini = 0.003\nsamples = 1509\nvalue = [1507, 2]"] ;
347 -> 348 ;
349 [label="x[125060] <= 0.32\ngini = 0.001\nsamples = 1507\nvalue = [1506, 1]"] ;
348 -> 349 ;
350 [label="gini = 0.0\nsamples = 1505\nvalue = [1505, 0]"] ;
349 -> 350 ;
351 [label="gini = 0.5\nsamples = 2\nvalue = [1, 1]"] ;
349 -> 351 ;
352 [label="gini = 0.5\nsamples = 2\nvalue = [1, 1]"] ;
348 -> 352 ;
353 [label="gini = 0.5\nsamples = 2\nvalue = [1, 1]"] ;
347 -> 353 ;
354 [label="gini = 0.5\nsamples = 2\nvalue = [1, 1]"] ;
346 -> 354 ;
355 [label="gini = 0.5\nsamples = 2\nvalue = [1, 1]"] ;
345 -> 355 ;
356 [label="gini = 0.5\nsamples = 2\nvalue = [1, 1]"] ;
344 -> 356 ;
357 [label="gini = 0.5\nsamples = 2\nvalue = [1, 1]"] ;
343 -> 357 ;
358 [label="gini = 0.5\nsamples = 2\nvalue = [1, 1]"] ;
342 -> 358 ;
359 [label="gini = 0.5\nsamples = 2\nvalue = [1, 1]"] ;
341 -> 359 ;
360 [label="gini = 0.0\nsamples = 1\nvalue = [0, 1]"] ;
340 -> 360 ;
361 [label="gini = 0.0\nsamples = 1\nvalue = [0, 1]"] ;
339 -> 361 ;
362 [label="gini = 0.0\nsamples = 1\nvalue = [0, 1]"] ;
338 -> 362 ;
363 [label="gini = 0.0\nsamples = 1\nvalue = [0, 1]"] ;
337 -> 363 ;
364 [label="gini = 0.0\nsamples = 1\nvalue = [0, 1]"] ;
336 -> 364 ;
365 [label="gini = 0.0\nsamples = 1\nvalue = [0, 1]"] ;
335 -> 365 ;
366 [label="gini = 0.0\nsamples = 1\nvalue = [0, 1]"] ;
334 -> 366 ;
367 [label="x[105501] <= 0.062\ngini = 0.135\nsamples = 716\nvalue = [52.0, 664.0]"] ;
9 -> 367 ;
368 [label="x[46636] <= 0.064\ngini = 0.119\nsamples = 706\nvalue = [45, 661]"] ;
367 -> 368 ;
369 [label="x[15395] <= 0.141\ngini = 0.112\nsamples = 702\nvalue = [42, 660]"] ;
368 -> 369 ;
370 [label="x[22299] <= 0.096\ngini = 0.108\nsamples = 700\nvalue = [40, 660]"] ;
369 -> 370 ;
371 [label="x[55565] <= 0.056\ngini = 0.103\nsamples = 698\nvalue = [38, 660]"] ;
370 -> 371 ;
372 [label="x[68505] <= 0.069\ngini = 0.098\nsamples = 696\nvalue = [36, 660]"] ;
371 -> 372 ;
373 [label="x[43273] <= 0.156\ngini = 0.093\nsamples = 694\nvalue = [34, 660]"] ;
372 -> 373 ;
374 [label="x[22024] <= 0.321\ngini = 0.088\nsamples = 692\nvalue = [32, 660]"] ;
373 -> 374 ;
375 [label="x[67769] <= 0.183\ngini = 0.083\nsamples = 689\nvalue = [30, 659]"] ;
374 -> 375 ;
376 [label="x[60188] <= 0.107\ngini = 0.081\nsamples = 688\nvalue = [29, 659]"] ;
375 -> 376 ;
377 [label="x[143169] <= 0.154\ngini = 0.078\nsamples = 687\nvalue = [28, 659]"] ;
376 -> 377 ;
378 [label="x[2889] <= 0.081\ngini = 0.076\nsamples = 686\nvalue = [27.0, 659.0]"] ;
377 -> 378 ;
379 [label="x[15947] <= 0.097\ngini = 0.073\nsamples = 685\nvalue = [26, 659]"] ;
378 -> 379 ;
380 [label="x[22000] <= 0.164\ngini = 0.07\nsamples = 684\nvalue = [25, 659]"] ;
379 -> 380 ;
381 [label="x[100884] <= 0.149\ngini = 0.068\nsamples = 683\nvalue = [24, 659]"] ;
380 -> 381 ;
382 [label="x[14129] <= 0.178\ngini = 0.065\nsamples = 682\nvalue = [23, 659]"] ;
381 -> 382 ;
383 [label="x[146544] <= 0.065\ngini = 0.063\nsamples = 681\nvalue = [22, 659]"] ;
382 -> 383 ;
384 [label="x[34901] <= 0.271\ngini = 0.06\nsamples = 680\nvalue = [21, 659]"] ;
383 -> 384 ;
385 [label="gini = 0.057\nsamples = 679\nvalue = [20, 659]"] ;
384 -> 385 ;
386 [label="gini = 0.0\nsamples = 1\nvalue = [1, 0]"] ;
384 -> 386 ;
387 [label="gini = 0.0\nsamples = 1\nvalue = [1, 0]"] ;
383 -> 387 ;
388 [label="gini = 0.0\nsamples = 1\nvalue = [1, 0]"] ;
382 -> 388 ;
389 [label="gini = 0.0\nsamples = 1\nvalue = [1, 0]"] ;
381 -> 389 ;
390 [label="gini = 0.0\nsamples = 1\nvalue = [1, 0]"] ;
380 -> 390 ;
391 [label="gini = 0.0\nsamples = 1\nvalue = [1, 0]"] ;
379 -> 391 ;
392 [label="gini = 0.0\nsamples = 1\nvalue = [1, 0]"] ;
378 -> 392 ;
393 [label="gini = 0.0\nsamples = 1\nvalue = [1, 0]"] ;
377 -> 393 ;
394 [label="gini = 0.0\nsamples = 1\nvalue = [1, 0]"] ;
376 -> 394 ;
395 [label="gini = 0.0\nsamples = 1\nvalue = [1, 0]"] ;
375 -> 395 ;
396 [label="x[22024] <= 0.609\ngini = 0.444\nsamples = 3\nvalue = [2, 1]"] ;
374 -> 396 ;
397 [label="gini = 0.0\nsamples = 2\nvalue = [2, 0]"] ;
396 -> 397 ;
398 [label="gini = 0.0\nsamples = 1\nvalue = [0, 1]"] ;
396 -> 398 ;
399 [label="gini = 0.0\nsamples = 2\nvalue = [2, 0]"] ;
373 -> 399 ;
400 [label="gini = 0.0\nsamples = 2\nvalue = [2, 0]"] ;
372 -> 400 ;
401 [label="gini = 0.0\nsamples = 2\nvalue = [2, 0]"] ;
371 -> 401 ;
402 [label="gini = 0.0\nsamples = 2\nvalue = [2, 0]"] ;
370 -> 402 ;
403 [label="gini = 0.0\nsamples = 2\nvalue = [2, 0]"] ;
369 -> 403 ;
404 [label="x[122366] <= 0.121\ngini = 0.375\nsamples = 4\nvalue = [3, 1]"] ;
368 -> 404 ;
405 [label="gini = 0.0\nsamples = 3\nvalue = [3, 0]"] ;
404 -> 405 ;
406 [label="gini = 0.0\nsamples = 1\nvalue = [0, 1]"] ;
404 -> 406 ;
407 [label="x[105501] <= 0.207\ngini = 0.42\nsamples = 10\nvalue = [7, 3]"] ;
367 -> 407 ;
408 [label="gini = 0.0\nsamples = 6\nvalue = [6, 0]"] ;
407 -> 408 ;
409 [label="x[39652] <= 0.181\ngini = 0.375\nsamples = 4\nvalue = [1, 3]"] ;
407 -> 409 ;
410 [label="gini = 0.0\nsamples = 2\nvalue = [0, 2]"] ;
409 -> 410 ;
411 [label="gini = 0.5\nsamples = 2\nvalue = [1, 1]"] ;
409 -> 411 ;
412 [label="x[64080] <= 0.081\ngini = 0.023\nsamples = 2567\nvalue = [2537, 30]"] ;
8 -> 412 ;
413 [label="x[159008] <= 0.135\ngini = 0.022\nsamples = 2564\nvalue = [2536, 28]"] ;
412 -> 413 ;
414 [label="x[4133] <= 0.104\ngini = 0.021\nsamples = 2563\nvalue = [2536, 27]"] ;
413 -> 414 ;
415 [label="x[60011] <= 0.208\ngini = 0.02\nsamples = 2562\nvalue = [2536.0, 26.0]"] ;
414 -> 415 ;
416 [label="x[50042] <= 0.215\ngini = 0.019\nsamples = 2561\nvalue = [2536, 25]"] ;
415 -> 416 ;
417 [label="x[9709] <= 0.29\ngini = 0.019\nsamples = 2560\nvalue = [2536, 24]"] ;
416 -> 417 ;
418 [label="x[143180] <= 0.259\ngini = 0.018\nsamples = 2559\nvalue = [2536, 23]"] ;
417 -> 418 ;
419 [label="x[58821] <= 0.124\ngini = 0.017\nsamples = 2558\nvalue = [2536.0, 22.0]"] ;
418 -> 419 ;
420 [label="x[634] <= 0.177\ngini = 0.016\nsamples = 2557\nvalue = [2536, 21]"] ;
419 -> 420 ;
421 [label="x[141486] <= 0.458\ngini = 0.016\nsamples = 2556\nvalue = [2536, 20]"] ;
420 -> 421 ;
422 [label="x[149786] <= 0.448\ngini = 0.015\nsamples = 2555\nvalue = [2536, 19]"] ;
421 -> 422 ;
423 [label="x[52562] <= 0.093\ngini = 0.014\nsamples = 2554\nvalue = [2536, 18]"] ;
422 -> 423 ;
424 [label="x[86141] <= 0.179\ngini = 0.012\nsamples = 2549\nvalue = [2533, 16]"] ;
423 -> 424 ;
425 [label="x[131972] <= 0.117\ngini = 0.012\nsamples = 2547\nvalue = [2532, 15]"] ;
424 -> 425 ;
426 [label="x[23561] <= 0.124\ngini = 0.011\nsamples = 2545\nvalue = [2531, 14]"] ;
425 -> 426 ;
427 [label="x[90612] <= 0.156\ngini = 0.01\nsamples = 2543\nvalue = [2530, 13]"] ;
426 -> 427 ;
428 [label="x[119455] <= 0.113\ngini = 0.009\nsamples = 2541\nvalue = [2529, 12]"] ;
427 -> 428 ;
429 [label="x[104112] <= 0.176\ngini = 0.009\nsamples = 2539\nvalue = [2528, 11]"] ;
428 -> 429 ;
430 [label="x[111560] <= 0.157\ngini = 0.008\nsamples = 2537\nvalue = [2527, 10]"] ;
429 -> 430 ;
431 [label="gini = 0.007\nsamples = 2535\nvalue = [2526, 9]"] ;
430 -> 431 ;
432 [label="gini = 0.5\nsamples = 2\nvalue = [1, 1]"] ;
430 -> 432 ;
433 [label="gini = 0.5\nsamples = 2\nvalue = [1, 1]"] ;
429 -> 433 ;
434 [label="gini = 0.5\nsamples = 2\nvalue = [1, 1]"] ;
428 -> 434 ;
435 [label="gini = 0.5\nsamples = 2\nvalue = [1, 1]"] ;
427 -> 435 ;
436 [label="gini = 0.5\nsamples = 2\nvalue = [1, 1]"] ;
426 -> 436 ;
437 [label="gini = 0.5\nsamples = 2\nvalue = [1, 1]"] ;
425 -> 437 ;
438 [label="gini = 0.5\nsamples = 2\nvalue = [1, 1]"] ;
424 -> 438 ;
439 [label="x[52562] <= 0.326\ngini = 0.48\nsamples = 5\nvalue = [3, 2]"] ;
423 -> 439 ;
440 [label="x[69338] <= 0.056\ngini = 0.5\nsamples = 4\nvalue = [2, 2]"] ;
439 -> 440 ;
441 [label="gini = 0.5\nsamples = 2\nvalue = [1, 1]"] ;
440 -> 441 ;
442 [label="gini = 0.5\nsamples = 2\nvalue = [1, 1]"] ;
440 -> 442 ;
443 [label="gini = 0.0\nsamples = 1\nvalue = [1, 0]"] ;
439 -> 443 ;
444 [label="gini = 0.0\nsamples = 1\nvalue = [0, 1]"] ;
422 -> 444 ;
445 [label="gini = 0.0\nsamples = 1\nvalue = [0, 1]"] ;
421 -> 445 ;
446 [label="gini = 0.0\nsamples = 1\nvalue = [0, 1]"] ;
420 -> 446 ;
447 [label="gini = 0.0\nsamples = 1\nvalue = [0, 1]"] ;
419 -> 447 ;
448 [label="gini = 0.0\nsamples = 1\nvalue = [0, 1]"] ;
418 -> 448 ;
449 [label="gini = 0.0\nsamples = 1\nvalue = [0, 1]"] ;
417 -> 449 ;
450 [label="gini = 0.0\nsamples = 1\nvalue = [0, 1]"] ;
416 -> 450 ;
451 [label="gini = 0.0\nsamples = 1\nvalue = [0, 1]"] ;
415 -> 451 ;
452 [label="gini = 0.0\nsamples = 1\nvalue = [0, 1]"] ;
414 -> 452 ;
453 [label="gini = 0.0\nsamples = 1\nvalue = [0, 1]"] ;
413 -> 453 ;
454 [label="x[112381] <= 0.112\ngini = 0.444\nsamples = 3\nvalue = [1, 2]"] ;
412 -> 454 ;
455 [label="gini = 0.5\nsamples = 2\nvalue = [1, 1]"] ;
454 -> 455 ;
456 [label="gini = 0.0\nsamples = 1\nvalue = [0, 1]"] ;
454 -> 456 ;
457 [label="x[97808] <= 0.027\ngini = 0.159\nsamples = 887\nvalue = [77, 810]"] ;
7 -> 457 ;
458 [label="x[97831] <= 0.065\ngini = 0.145\nsamples = 877\nvalue = [69, 808]"] ;
457 -> 458 ;
459 [label="x[69238] <= 0.171\ngini = 0.14\nsamples = 874\nvalue = [66, 808]"] ;
458 -> 459 ;
460 [label="x[68505] <= 0.041\ngini = 0.131\nsamples = 866\nvalue = [61.0, 805.0]"] ;
459 -> 460 ;
461 [label="x[114430] <= 0.082\ngini = 0.126\nsamples = 862\nvalue = [58, 804]"] ;
460 -> 461 ;
462 [label="x[138360] <= 0.062\ngini = 0.122\nsamples = 860\nvalue = [56, 804]"] ;
461 -> 462 ;
463 [label="x[161231] <= 0.106\ngini = 0.118\nsamples = 858\nvalue = [54.0, 804.0]"] ;
462 -> 463 ;
464 [label="x[97871] <= 0.144\ngini = 0.114\nsamples = 856\nvalue = [52, 804]"] ;
463 -> 464 ;
465 [label="x[31314] <= 0.075\ngini = 0.11\nsamples = 854\nvalue = [50, 804]"] ;
464 -> 465 ;
466 [label="x[146550] <= 0.106\ngini = 0.106\nsamples = 851\nvalue = [48, 803]"] ;
465 -> 466 ;
467 [label="x[160970] <= 0.074\ngini = 0.103\nsamples = 848\nvalue = [46, 802]"] ;
466 -> 467 ;
468 [label="x[54746] <= 0.262\ngini = 0.099\nsamples = 845\nvalue = [44, 801]"] ;
467 -> 468 ;
469 [label="x[103931] <= 0.102\ngini = 0.095\nsamples = 842\nvalue = [42, 800]"] ;
468 -> 469 ;
470 [label="x[45010] <= 0.1\ngini = 0.091\nsamples = 839\nvalue = [40, 799]"] ;
469 -> 470 ;
471 [label="x[103702] <= 0.175\ngini = 0.089\nsamples = 838\nvalue = [39, 799]"] ;
470 -> 471 ;
472 [label="x[56099] <= 0.108\ngini = 0.087\nsamples = 837\nvalue = [38, 799]"] ;
471 -> 472 ;
473 [label="x[3717] <= 0.115\ngini = 0.085\nsamples = 836\nvalue = [37, 799]"] ;
472 -> 473 ;
474 [label="x[117471] <= 0.17\ngini = 0.083\nsamples = 835\nvalue = [36, 799]"] ;
473 -> 474 ;
475 [label="x[112128] <= 0.098\ngini = 0.08\nsamples = 834\nvalue = [35, 799]"] ;
474 -> 475 ;
476 [label="x[11513] <= 0.146\ngini = 0.078\nsamples = 833\nvalue = [34, 799]"] ;
475 -> 476 ;
477 [label="gini = 0.076\nsamples = 832\nvalue = [33, 799]"] ;
476 -> 477 ;
478 [label="gini = 0.0\nsamples = 1\nvalue = [1, 0]"] ;
476 -> 478 ;
479 [label="gini = 0.0\nsamples = 1\nvalue = [1, 0]"] ;
475 -> 479 ;
480 [label="gini = 0.0\nsamples = 1\nvalue = [1, 0]"] ;
474 -> 480 ;
481 [label="gini = 0.0\nsamples = 1\nvalue = [1, 0]"] ;
473 -> 481 ;
482 [label="gini = 0.0\nsamples = 1\nvalue = [1, 0]"] ;
472 -> 482 ;
483 [label="gini = 0.0\nsamples = 1\nvalue = [1, 0]"] ;
471 -> 483 ;
484 [label="gini = 0.0\nsamples = 1\nvalue = [1, 0]"] ;
470 -> 484 ;
485 [label="x[35733] <= 0.059\ngini = 0.444\nsamples = 3\nvalue = [2, 1]"] ;
469 -> 485 ;
486 [label="gini = 0.5\nsamples = 2\nvalue = [1, 1]"] ;
485 -> 486 ;
487 [label="gini = 0.0\nsamples = 1\nvalue = [1, 0]"] ;
485 -> 487 ;
488 [label="x[74481] <= 0.055\ngini = 0.444\nsamples = 3\nvalue = [2, 1]"] ;
468 -> 488 ;
489 [label="gini = 0.0\nsamples = 2\nvalue = [2, 0]"] ;
488 -> 489 ;
490 [label="gini = 0.0\nsamples = 1\nvalue = [0, 1]"] ;
488 -> 490 ;
491 [label="x[160970] <= 0.487\ngini = 0.444\nsamples = 3\nvalue = [2, 1]"] ;
467 -> 491 ;
492 [label="gini = 0.0\nsamples = 2\nvalue = [2, 0]"] ;
491 -> 492 ;
493 [label="gini = 0.0\nsamples = 1\nvalue = [0, 1]"] ;
491 -> 493 ;
494 [label="x[97993] <= 0.304\ngini = 0.444\nsamples = 3\nvalue = [2, 1]"] ;
466 -> 494 ;
495 [label="gini = 0.0\nsamples = 1\nvalue = [1, 0]"] ;
494 -> 495 ;
496 [label="gini = 0.5\nsamples = 2\nvalue = [1, 1]"] ;
494 -> 496 ;
497 [label="x[105135] <= 0.059\ngini = 0.444\nsamples = 3\nvalue = [2, 1]"] ;
465 -> 497 ;
498 [label="gini = 0.0\nsamples = 1\nvalue = [1, 0]"] ;
497 -> 498 ;
499 [label="gini = 0.5\nsamples = 2\nvalue = [1, 1]"] ;
497 -> 499 ;
500 [label="gini = 0.0\nsamples = 2\nvalue = [2, 0]"] ;
464 -> 500 ;
501 [label="gini = 0.0\nsamples = 2\nvalue = [2, 0]"] ;
463 -> 501 ;
502 [label="gini = 0.0\nsamples = 2\nvalue = [2, 0]"] ;
462 -> 502 ;
503 [label="gini = 0.0\nsamples = 2\nvalue = [2, 0]"] ;
461 -> 503 ;
504 [label="x[37220] <= 0.041\ngini = 0.375\nsamples = 4\nvalue = [3, 1]"] ;
460 -> 504 ;
505 [label="gini = 0.0\nsamples = 3\nvalue = [3, 0]"] ;
504 -> 505 ;
506 [label="gini = 0.0\nsamples = 1\nvalue = [0, 1]"] ;
504 -> 506 ;
507 [label="x[17473] <= 0.068\ngini = 0.469\nsamples = 8\nvalue = [5, 3]"] ;
459 -> 507 ;
508 [label="x[66606] <= 0.093\ngini = 0.408\nsamples = 7\nvalue = [5, 2]"] ;
507 -> 508 ;
509 [label="x[55616] <= 0.15\ngini = 0.278\nsamples = 6\nvalue = [5, 1]"] ;
508 -> 509 ;
510 [label="gini = 0.0\nsamples = 4\nvalue = [4, 0]"] ;
509 -> 510 ;
511 [label="gini = 0.5\nsamples = 2\nvalue = [1, 1]"] ;
509 -> 511 ;
512 [label="gini = 0.0\nsamples = 1\nvalue = [0, 1]"] ;
508 -> 512 ;
513 [label="gini = 0.0\nsamples = 1\nvalue = [0, 1]"] ;
507 -> 513 ;
514 [label="gini = 0.0\nsamples = 3\nvalue = [3, 0]"] ;
458 -> 514 ;
515 [label="x[29892] <= 0.093\ngini = 0.32\nsamples = 10\nvalue = [8, 2]"] ;
457 -> 515 ;
516 [label="x[159019] <= 0.131\ngini = 0.198\nsamples = 9\nvalue = [8, 1]"] ;
515 -> 516 ;
517 [label="gini = 0.0\nsamples = 7\nvalue = [7, 0]"] ;
516 -> 517 ;
518 [label="gini = 0.5\nsamples = 2\nvalue = [1, 1]"] ;
516 -> 518 ;
519 [label="gini = 0.0\nsamples = 1\nvalue = [0, 1]"] ;
515 -> 519 ;
520 [label="x[97808] <= 0.043\ngini = 0.242\nsamples = 2077\nvalue = [293, 1784]"] ;
6 -> 520 ;
521 [label="x[97831] <= 0.048\ngini = 0.229\nsamples = 2052\nvalue = [270, 1782]"] ;
520 -> 521 ;
522 [label="x[37220] <= 0.222\ngini = 0.217\nsamples = 2030\nvalue = [252, 1778]"] ;
521 -> 522 ;
523 [label="x[46636] <= 0.047\ngini = 0.352\nsamples = 566\nvalue = [129, 437]"] ;
522 -> 523 ;
524 [label="x[68505] <= 0.048\ngini = 0.341\nsamples = 559\nvalue = [122.0, 437.0]"] ;
523 -> 524 ;
525 [label="x[49070] <= 0.13\ngini = 0.334\nsamples = 553\nvalue = [117, 436]"] ;
524 -> 525 ;
526 [label="x[121340] <= 0.072\ngini = 0.329\nsamples = 550\nvalue = [114, 436]"] ;
525 -> 526 ;
527 [label="x[59629] <= 0.169\ngini = 0.323\nsamples = 547\nvalue = [111.0, 436.0]"] ;
526 -> 527 ;
528 [label="x[14161] <= 0.086\ngini = 0.318\nsamples = 544\nvalue = [108, 436]"] ;
527 -> 528 ;
529 [label="x[39336] <= 0.129\ngini = 0.313\nsamples = 541\nvalue = [105.0, 436.0]"] ;
528 -> 529 ;
530 [label="x[96495] <= 0.079\ngini = 0.306\nsamples = 535\nvalue = [101, 434]"] ;
529 -> 530 ;
531 [label="x[26689] <= 0.161\ngini = 0.302\nsamples = 533\nvalue = [99, 434]"] ;
530 -> 531 ;
532 [label="x[4570] <= 0.116\ngini = 0.299\nsamples = 531\nvalue = [97, 434]"] ;
531 -> 532 ;
533 [label="x[45757] <= 0.06\ngini = 0.295\nsamples = 529\nvalue = [95, 434]"] ;
532 -> 533 ;
534 [label="x[62450] <= 0.086\ngini = 0.291\nsamples = 527\nvalue = [93, 434]"] ;
533 -> 534 ;
535 [label="x[128384] <= 0.169\ngini = 0.287\nsamples = 525\nvalue = [91, 434]"] ;
534 -> 535 ;
536 [label="x[59213] <= 0.172\ngini = 0.282\nsamples = 523\nvalue = [89, 434]"] ;
535 -> 536 ;
537 [label="x[49633] <= 0.132\ngini = 0.278\nsamples = 521\nvalue = [87, 434]"] ;
536 -> 537 ;
538 [label="x[73588] <= 0.19\ngini = 0.274\nsamples = 519\nvalue = [85, 434]"] ;
537 -> 538 ;
539 [label="x[33383] <= 0.238\ngini = 0.27\nsamples = 517\nvalue = [83, 434]"] ;
538 -> 539 ;
540 [label="x[139557] <= 0.134\ngini = 0.265\nsamples = 515\nvalue = [81, 434]"] ;
539 -> 540 ;
541 [label="gini = 0.261\nsamples = 513\nvalue = [79, 434]"] ;
540 -> 541 ;
542 [label="gini = 0.0\nsamples = 2\nvalue = [2, 0]"] ;
540 -> 542 ;
543 [label="gini = 0.0\nsamples = 2\nvalue = [2, 0]"] ;
539 -> 543 ;
544 [label="gini = 0.0\nsamples = 2\nvalue = [2, 0]"] ;
538 -> 544 ;
545 [label="gini = 0.0\nsamples = 2\nvalue = [2, 0]"] ;
537 -> 545 ;
546 [label="gini = 0.0\nsamples = 2\nvalue = [2, 0]"] ;
536 -> 546 ;
547 [label="gini = 0.0\nsamples = 2\nvalue = [2, 0]"] ;
535 -> 547 ;
548 [label="gini = 0.0\nsamples = 2\nvalue = [2, 0]"] ;
534 -> 548 ;
549 [label="gini = 0.0\nsamples = 2\nvalue = [2, 0]"] ;
533 -> 549 ;
550 [label="gini = 0.0\nsamples = 2\nvalue = [2, 0]"] ;
532 -> 550 ;
551 [label="gini = 0.0\nsamples = 2\nvalue = [2, 0]"] ;
531 -> 551 ;
552 [label="gini = 0.0\nsamples = 2\nvalue = [2, 0]"] ;
530 -> 552 ;
553 [label="x[49499] <= 0.063\ngini = 0.444\nsamples = 6\nvalue = [4, 2]"] ;
529 -> 553 ;
554 [label="gini = 0.0\nsamples = 4\nvalue = [4, 0]"] ;
553 -> 554 ;
555 [label="gini = 0.0\nsamples = 2\nvalue = [0, 2]"] ;
553 -> 555 ;
556 [label="gini = 0.0\nsamples = 3\nvalue = [3, 0]"] ;
528 -> 556 ;
557 [label="gini = 0.0\nsamples = 3\nvalue = [3, 0]"] ;
527 -> 557 ;
558 [label="gini = 0.0\nsamples = 3\nvalue = [3, 0]"] ;
526 -> 558 ;
559 [label="gini = 0.0\nsamples = 3\nvalue = [3, 0]"] ;
525 -> 559 ;
560 [label="x[75644] <= 0.09\ngini = 0.278\nsamples = 6\nvalue = [5, 1]"] ;
524 -> 560 ;
561 [label="gini = 0.0\nsamples = 4\nvalue = [4, 0]"] ;
560 -> 561 ;
562 [label="gini = 0.5\nsamples = 2\nvalue = [1, 1]"] ;
560 -> 562 ;
563 [label="gini = 0.0\nsamples = 7\nvalue = [7, 0]"] ;
523 -> 563 ;
564 [label="x[81971] <= 0.06\ngini = 0.154\nsamples = 1464\nvalue = [123, 1341]"] ;
522 -> 564 ;
565 [label="x[136295] <= 0.103\ngini = 0.149\nsamples = 1458\nvalue = [118, 1340]"] ;
564 -> 565 ;
566 [label="x[115126] <= 0.062\ngini = 0.145\nsamples = 1454\nvalue = [114.0, 1340.0]"] ;
565 -> 566 ;
567 [label="x[136276] <= 0.097\ngini = 0.14\nsamples = 1449\nvalue = [110.0, 1339.0]"] ;
566 -> 567 ;
568 [label="x[135915] <= 0.226\ngini = 0.137\nsamples = 1446\nvalue = [107, 1339]"] ;
567 -> 568 ;
569 [label="x[91205] <= 0.148\ngini = 0.135\nsamples = 1444\nvalue = [105, 1339]"] ;
568 -> 569 ;
570 [label="x[72066] <= 0.24\ngini = 0.133\nsamples = 1442\nvalue = [103, 1339]"] ;
569 -> 570 ;
571 [label="x[103922] <= 0.11\ngini = 0.13\nsamples = 1440\nvalue = [101, 1339]"] ;
570 -> 571 ;
572 [label="x[5123] <= 0.422\ngini = 0.128\nsamples = 1438\nvalue = [99, 1339]"] ;
571 -> 572 ;
573 [label="x[141366] <= 0.102\ngini = 0.126\nsamples = 1436\nvalue = [97.0, 1339.0]"] ;
572 -> 573 ;
574 [label="x[31259] <= 0.115\ngini = 0.124\nsamples = 1434\nvalue = [95.0, 1339.0]"] ;
573 -> 574 ;
575 [label="x[164137] <= 0.092\ngini = 0.121\nsamples = 1432\nvalue = [93.0, 1339.0]"] ;
574 -> 575 ;
576 [label="x[100401] <= 0.102\ngini = 0.119\nsamples = 1430\nvalue = [91.0, 1339.0]"] ;
575 -> 576 ;
577 [label="x[98976] <= 0.184\ngini = 0.117\nsamples = 1427\nvalue = [89, 1338]"] ;
576 -> 577 ;
578 [label="x[77570] <= 0.126\ngini = 0.115\nsamples = 1424\nvalue = [87, 1337]"] ;
577 -> 578 ;
579 [label="x[139456] <= 0.07\ngini = 0.112\nsamples = 1421\nvalue = [85, 1336]"] ;
578 -> 579 ;
580 [label="x[69238] <= 0.175\ngini = 0.11\nsamples = 1418\nvalue = [83, 1335]"] ;
579 -> 580 ;
581 [label="x[32562] <= 0.057\ngini = 0.108\nsamples = 1415\nvalue = [81, 1334]"] ;
580 -> 581 ;
582 [label="gini = 0.106\nsamples = 1412\nvalue = [79, 1333]"] ;
581 -> 582 ;
583 [label="gini = 0.444\nsamples = 3\nvalue = [2, 1]"] ;
581 -> 583 ;
584 [label="x[37220] <= 0.557\ngini = 0.444\nsamples = 3\nvalue = [2, 1]"] ;
580 -> 584 ;
585 [label="gini = 0.0\nsamples = 2\nvalue = [2, 0]"] ;
584 -> 585 ;
586 [label="gini = 0.0\nsamples = 1\nvalue = [0, 1]"] ;
584 -> 586 ;
587 [label="x[25250] <= 0.121\ngini = 0.444\nsamples = 3\nvalue = [2, 1]"] ;
579 -> 587 ;
588 [label="gini = 0.0\nsamples = 2\nvalue = [2, 0]"] ;
587 -> 588 ;
589 [label="gini = 0.0\nsamples = 1\nvalue = [0, 1]"] ;
587 -> 589 ;
590 [label="x[16044] <= 0.145\ngini = 0.444\nsamples = 3\nvalue = [2, 1]"] ;
578 -> 590 ;
591 [label="gini = 0.5\nsamples = 2\nvalue = [1, 1]"] ;
590 -> 591 ;
592 [label="gini = 0.0\nsamples = 1\nvalue = [1, 0]"] ;
590 -> 592 ;
593 [label="x[98976] <= 0.235\ngini = 0.444\nsamples = 3\nvalue = [2, 1]"] ;
577 -> 593 ;
594 [label="gini = 0.0\nsamples = 2\nvalue = [2, 0]"] ;
593 -> 594 ;
595 [label="gini = 0.0\nsamples = 1\nvalue = [0, 1]"] ;
593 -> 595 ;
596 [label="x[91603] <= 0.134\ngini = 0.444\nsamples = 3\nvalue = [2, 1]"] ;
576 -> 596 ;
597 [label="gini = 0.0\nsamples = 1\nvalue = [1, 0]"] ;
596 -> 597 ;
598 [label="gini = 0.5\nsamples = 2\nvalue = [1, 1]"] ;
596 -> 598 ;
599 [label="gini = 0.0\nsamples = 2\nvalue = [2, 0]"] ;
575 -> 599 ;
600 [label="gini = 0.0\nsamples = 2\nvalue = [2, 0]"] ;
574 -> 600 ;
601 [label="gini = 0.0\nsamples = 2\nvalue = [2, 0]"] ;
573 -> 601 ;
602 [label="gini = 0.0\nsamples = 2\nvalue = [2, 0]"] ;
572 -> 602 ;
603 [label="gini = 0.0\nsamples = 2\nvalue = [2, 0]"] ;
571 -> 603 ;
604 [label="gini = 0.0\nsamples = 2\nvalue = [2, 0]"] ;
570 -> 604 ;
605 [label="gini = 0.0\nsamples = 2\nvalue = [2, 0]"] ;
569 -> 605 ;
606 [label="gini = 0.0\nsamples = 2\nvalue = [2, 0]"] ;
568 -> 606 ;
607 [label="gini = 0.0\nsamples = 3\nvalue = [3, 0]"] ;
567 -> 607 ;
608 [label="x[115126] <= 0.436\ngini = 0.32\nsamples = 5\nvalue = [4, 1]"] ;
566 -> 608 ;
609 [label="gini = 0.0\nsamples = 4\nvalue = [4, 0]"] ;
608 -> 609 ;
610 [label="gini = 0.0\nsamples = 1\nvalue = [0, 1]"] ;
608 -> 610 ;
611 [label="gini = 0.0\nsamples = 4\nvalue = [4, 0]"] ;
565 -> 611 ;
612 [label="x[81971] <= 0.555\ngini = 0.278\nsamples = 6\nvalue = [5, 1]"] ;
564 -> 612 ;
613 [label="gini = 0.0\nsamples = 4\nvalue = [4, 0]"] ;
612 -> 613 ;
614 [label="gini = 0.5\nsamples = 2\nvalue = [1, 1]"] ;
612 -> 614 ;
615 [label="x[19798] <= 0.146\ngini = 0.298\nsamples = 22\nvalue = [18, 4]"] ;
521 -> 615 ;
616 [label="x[6314] <= 0.102\ngini = 0.245\nsamples = 21\nvalue = [18, 3]"] ;
615 -> 616 ;
617 [label="x[102911] <= 0.123\ngini = 0.111\nsamples = 17\nvalue = [16, 1]"] ;
616 -> 617 ;
618 [label="gini = 0.0\nsamples = 15\nvalue = [15, 0]"] ;
617 -> 618 ;
619 [label="gini = 0.5\nsamples = 2\nvalue = [1, 1]"] ;
617 -> 619 ;
620 [label="x[85573] <= 0.111\ngini = 0.5\nsamples = 4\nvalue = [2, 2]"] ;
616 -> 620 ;
621 [label="gini = 0.5\nsamples = 2\nvalue = [1, 1]"] ;
620 -> 621 ;
622 [label="gini = 0.5\nsamples = 2\nvalue = [1, 1]"] ;
620 -> 622 ;
623 [label="gini = 0.0\nsamples = 1\nvalue = [0, 1]"] ;
615 -> 623 ;
624 [label="x[65618] <= 0.188\ngini = 0.147\nsamples = 25\nvalue = [23, 2]"] ;
520 -> 624 ;
625 [label="x[39895] <= 0.073\ngini = 0.08\nsamples = 24\nvalue = [23, 1]"] ;
624 -> 625 ;
626 [label="gini = 0.0\nsamples = 22\nvalue = [22, 0]"] ;
625 -> 626 ;
627 [label="gini = 0.5\nsamples = 2\nvalue = [1, 1]"] ;
625 -> 627 ;
628 [label="gini = 0.0\nsamples = 1\nvalue = [0, 1]"] ;
624 -> 628 ;
629 [label="x[97808] <= 0.09\ngini = 0.24\nsamples = 2407\nvalue = [335, 2072]"] ;
5 -> 629 ;
630 [label="x[97831] <= 0.038\ngini = 0.225\nsamples = 2378\nvalue = [307.0, 2071.0]"] ;
629 -> 630 ;
631 [label="x[68505] <= 0.117\ngini = 0.214\nsamples = 2356\nvalue = [287, 2069]"] ;
630 -> 631 ;
632 [label="x[67407] <= 0.063\ngini = 0.208\nsamples = 2344\nvalue = [276, 2068]"] ;
631 -> 632 ;
633 [label="x[46636] <= 0.094\ngini = 0.202\nsamples = 2331\nvalue = [265, 2066]"] ;
632 -> 633 ;
634 [label="x[14161] <= 0.049\ngini = 0.194\nsamples = 2314\nvalue = [252, 2062]"] ;
633 -> 634 ;
635 [label="x[61509] <= 0.149\ngini = 0.19\nsamples = 2307\nvalue = [245, 2062]"] ;
634 -> 635 ;
636 [label="x[158840] <= 0.094\ngini = 0.264\nsamples = 1054\nvalue = [165, 889]"] ;
635 -> 636 ;
637 [label="x[4383] <= 0.065\ngini = 0.259\nsamples = 1049\nvalue = [160, 889]"] ;
636 -> 637 ;
638 [label="x[164137] <= 0.137\ngini = 0.254\nsamples = 1045\nvalue = [156, 889]"] ;
637 -> 638 ;
639 [label="x[97551] <= 0.074\ngini = 0.251\nsamples = 1042\nvalue = [153, 889]"] ;
638 -> 639 ;
640 [label="x[32562] <= 0.168\ngini = 0.247\nsamples = 1039\nvalue = [150, 889]"] ;
639 -> 640 ;
641 [label="x[81272] <= 0.193\ngini = 0.244\nsamples = 1036\nvalue = [147, 889]"] ;
640 -> 641 ;
642 [label="x[81529] <= 0.066\ngini = 0.24\nsamples = 1033\nvalue = [144, 889]"] ;
641 -> 642 ;
643 [label="x[39835] <= 0.091\ngini = 0.236\nsamples = 1030\nvalue = [141, 889]"] ;
642 -> 643 ;
644 [label="x[47401] <= 0.057\ngini = 0.227\nsamples = 1010\nvalue = [132, 878]"] ;
643 -> 644 ;
645 [label="x[39799] <= 0.136\ngini = 0.222\nsamples = 1004\nvalue = [128, 876]"] ;
644 -> 645 ;
646 [label="x[69052] <= 0.054\ngini = 0.218\nsamples = 998\nvalue = [124, 874]"] ;
645 -> 646 ;
647 [label="x[81225] <= 0.087\ngini = 0.212\nsamples = 989\nvalue = [119, 870]"] ;
646 -> 647 ;
648 [label="x[75231] <= 0.095\ngini = 0.208\nsamples = 985\nvalue = [116, 869]"] ;
647 -> 648 ;
649 [label="x[44275] <= 0.149\ngini = 0.205\nsamples = 983\nvalue = [114, 869]"] ;
648 -> 649 ;
650 [label="x[106739] <= 0.087\ngini = 0.202\nsamples = 981\nvalue = [112, 869]"] ;
649 -> 650 ;
651 [label="gini = 0.199\nsamples = 979\nvalue = [110, 869]"] ;
650 -> 651 ;
652 [label="gini = 0.0\nsamples = 2\nvalue = [2, 0]"] ;
650 -> 652 ;
653 [label="gini = 0.0\nsamples = 2\nvalue = [2, 0]"] ;
649 -> 653 ;
654 [label="gini = 0.0\nsamples = 2\nvalue = [2, 0]"] ;
648 -> 654 ;
655 [label="x[81225] <= 0.231\ngini = 0.375\nsamples = 4\nvalue = [3, 1]"] ;
647 -> 655 ;
656 [label="gini = 0.0\nsamples = 3\nvalue = [3, 0]"] ;
655 -> 656 ;
657 [label="gini = 0.0\nsamples = 1\nvalue = [0, 1]"] ;
655 -> 657 ;
658 [label="x[47801] <= 0.052\ngini = 0.494\nsamples = 9\nvalue = [5, 4]"] ;
646 -> 658 ;
659 [label="x[61509] <= 0.098\ngini = 0.49\nsamples = 7\nvalue = [3, 4]"] ;
658 -> 659 ;
660 [label="gini = 0.0\nsamples = 2\nvalue = [0, 2]"] ;
659 -> 660 ;
661 [label="x[162758] <= 0.17\ngini = 0.48\nsamples = 5\nvalue = [3, 2]"] ;
659 -> 661 ;
662 [label="x[48580] <= 0.103\ngini = 0.375\nsamples = 4\nvalue = [3, 1]"] ;
661 -> 662 ;
663 [label="gini = 0.0\nsamples = 2\nvalue = [2, 0]"] ;
662 -> 663 ;
664 [label="gini = 0.5\nsamples = 2\nvalue = [1, 1]"] ;
662 -> 664 ;
665 [label="gini = 0.0\nsamples = 1\nvalue = [0, 1]"] ;
661 -> 665 ;
666 [label="gini = 0.0\nsamples = 2\nvalue = [2, 0]"] ;
658 -> 666 ;
667 [label="x[119641] <= 0.051\ngini = 0.444\nsamples = 6\nvalue = [4, 2]"] ;
645 -> 667 ;
668 [label="x[153999] <= 0.18\ngini = 0.32\nsamples = 5\nvalue = [4, 1]"] ;
667 -> 668 ;
669 [label="gini = 0.0\nsamples = 4\nvalue = [4, 0]"] ;
668 -> 669 ;
670 [label="gini = 0.0\nsamples = 1\nvalue = [0, 1]"] ;
668 -> 670 ;
671 [label="gini = 0.0\nsamples = 1\nvalue = [0, 1]"] ;
667 -> 671 ;
672 [label="x[61509] <= 0.101\ngini = 0.444\nsamples = 6\nvalue = [4, 2]"] ;
644 -> 672 ;
673 [label="gini = 0.0\nsamples = 3\nvalue = [3, 0]"] ;
672 -> 673 ;
674 [label="x[164432] <= 0.143\ngini = 0.444\nsamples = 3\nvalue = [1, 2]"] ;
672 -> 674 ;
675 [label="gini = 0.0\nsamples = 2\nvalue = [0, 2]"] ;
674 -> 675 ;
676 [label="gini = 0.0\nsamples = 1\nvalue = [1, 0]"] ;
674 -> 676 ;
677 [label="x[39835] <= 0.108\ngini = 0.495\nsamples = 20\nvalue = [9, 11]"] ;
643 -> 677 ;
678 [label="gini = 0.0\nsamples = 4\nvalue = [4, 0]"] ;
677 -> 678 ;
679 [label="x[32251] <= 0.077\ngini = 0.43\nsamples = 16\nvalue = [5, 11]"] ;
677 -> 679 ;
680 [label="x[8921] <= 0.102\ngini = 0.391\nsamples = 15\nvalue = [4, 11]"] ;
679 -> 680 ;
681 [label="x[146557] <= 0.118\ngini = 0.337\nsamples = 14\nvalue = [3, 11]"] ;
680 -> 681 ;
682 [label="x[75722] <= 0.112\ngini = 0.26\nsamples = 13\nvalue = [2, 11]"] ;
681 -> 682 ;
683 [label="x[142857] <= 0.08\ngini = 0.153\nsamples = 12\nvalue = [1, 11]"] ;
682 -> 683 ;
684 [label="gini = 0.0\nsamples = 10\nvalue = [0, 10]"] ;
683 -> 684 ;
685 [label="gini = 0.5\nsamples = 2\nvalue = [1, 1]"] ;
683 -> 685 ;
686 [label="gini = 0.0\nsamples = 1\nvalue = [1, 0]"] ;
682 -> 686 ;
687 [label="gini = 0.0\nsamples = 1\nvalue = [1, 0]"] ;
681 -> 687 ;
688 [label="gini = 0.0\nsamples = 1\nvalue = [1, 0]"] ;
680 -> 688 ;
689 [label="gini = 0.0\nsamples = 1\nvalue = [1, 0]"] ;
679 -> 689 ;
690 [label="gini = 0.0\nsamples = 3\nvalue = [3, 0]"] ;
642 -> 690 ;
691 [label="gini = 0.0\nsamples = 3\nvalue = [3, 0]"] ;
641 -> 691 ;
692 [label="gini = 0.0\nsamples = 3\nvalue = [3, 0]"] ;
640 -> 692 ;
693 [label="gini = 0.0\nsamples = 3\nvalue = [3, 0]"] ;
639 -> 693 ;
694 [label="gini = 0.0\nsamples = 3\nvalue = [3, 0]"] ;
638 -> 694 ;
695 [label="gini = 0.0\nsamples = 4\nvalue = [4, 0]"] ;
637 -> 695 ;
696 [label="gini = 0.0\nsamples = 5\nvalue = [5, 0]"] ;
636 -> 696 ;
697 [label="x[89704] <= 0.147\ngini = 0.12\nsamples = 1253\nvalue = [80, 1173]"] ;
635 -> 697 ;
698 [label="x[91808] <= 0.086\ngini = 0.113\nsamples = 1248\nvalue = [75, 1173]"] ;
697 -> 698 ;
699 [label="x[32574] <= 0.303\ngini = 0.109\nsamples = 1245\nvalue = [72, 1173]"] ;
698 -> 699 ;
700 [label="x[38099] <= 0.195\ngini = 0.105\nsamples = 1241\nvalue = [69, 1172]"] ;
699 -> 700 ;
701 [label="x[41392] <= 0.191\ngini = 0.102\nsamples = 1239\nvalue = [67, 1172]"] ;
700 -> 701 ;
702 [label="x[80392] <= 0.07\ngini = 0.1\nsamples = 1237\nvalue = [65, 1172]"] ;
701 -> 702 ;
703 [label="x[31269] <= 0.384\ngini = 0.097\nsamples = 1235\nvalue = [63, 1172]"] ;
702 -> 703 ;
704 [label="x[110312] <= 0.269\ngini = 0.094\nsamples = 1233\nvalue = [61, 1172]"] ;
703 -> 704 ;
705 [label="x[6648] <= 0.197\ngini = 0.091\nsamples = 1231\nvalue = [59, 1172]"] ;
704 -> 705 ;
706 [label="x[97358] <= 0.222\ngini = 0.088\nsamples = 1229\nvalue = [57, 1172]"] ;
705 -> 706 ;
707 [label="x[39128] <= 0.195\ngini = 0.086\nsamples = 1227\nvalue = [55, 1172]"] ;
706 -> 707 ;
708 [label="x[46489] <= 0.235\ngini = 0.083\nsamples = 1225\nvalue = [53, 1172]"] ;
707 -> 708 ;
709 [label="x[111163] <= 0.174\ngini = 0.08\nsamples = 1222\nvalue = [51, 1171]"] ;
708 -> 709 ;
710 [label="x[145685] <= 0.145\ngini = 0.077\nsamples = 1219\nvalue = [49, 1170]"] ;
709 -> 710 ;
711 [label="x[125194] <= 0.316\ngini = 0.074\nsamples = 1216\nvalue = [47, 1169]"] ;
710 -> 711 ;
712 [label="gini = 0.071\nsamples = 1213\nvalue = [45, 1168]"] ;
711 -> 712 ;
713 [label="gini = 0.444\nsamples = 3\nvalue = [2, 1]"] ;
711 -> 713 ;
714 [label="x[138169] <= 0.153\ngini = 0.444\nsamples = 3\nvalue = [2, 1]"] ;
710 -> 714 ;
715 [label="gini = 0.0\nsamples = 2\nvalue = [2, 0]"] ;
714 -> 715 ;
716 [label="gini = 0.0\nsamples = 1\nvalue = [0, 1]"] ;
714 -> 716 ;
717 [label="x[111163] <= 0.338\ngini = 0.444\nsamples = 3\nvalue = [2, 1]"] ;
709 -> 717 ;
718 [label="gini = 0.0\nsamples = 2\nvalue = [2, 0]"] ;
717 -> 718 ;
719 [label="gini = 0.0\nsamples = 1\nvalue = [0, 1]"] ;
717 -> 719 ;
720 [label="x[162539] <= 0.095\ngini = 0.444\nsamples = 3\nvalue = [2, 1]"] ;
708 -> 720 ;
721 [label="gini = 0.0\nsamples = 2\nvalue = [2, 0]"] ;
720 -> 721 ;
722 [label="gini = 0.0\nsamples = 1\nvalue = [0, 1]"] ;
720 -> 722 ;
723 [label="gini = 0.0\nsamples = 2\nvalue = [2, 0]"] ;
707 -> 723 ;
724 [label="gini = 0.0\nsamples = 2\nvalue = [2, 0]"] ;
706 -> 724 ;
725 [label="gini = 0.0\nsamples = 2\nvalue = [2, 0]"] ;
705 -> 725 ;
726 [label="gini = 0.0\nsamples = 2\nvalue = [2, 0]"] ;
704 -> 726 ;
727 [label="gini = 0.0\nsamples = 2\nvalue = [2, 0]"] ;
703 -> 727 ;
728 [label="gini = 0.0\nsamples = 2\nvalue = [2, 0]"] ;
702 -> 728 ;
729 [label="gini = 0.0\nsamples = 2\nvalue = [2, 0]"] ;
701 -> 729 ;
730 [label="gini = 0.0\nsamples = 2\nvalue = [2, 0]"] ;
700 -> 730 ;
731 [label="x[32251] <= 0.189\ngini = 0.375\nsamples = 4\nvalue = [3, 1]"] ;
699 -> 731 ;
732 [label="gini = 0.0\nsamples = 3\nvalue = [3, 0]"] ;
731 -> 732 ;
733 [label="gini = 0.0\nsamples = 1\nvalue = [0, 1]"] ;
731 -> 733 ;
734 [label="gini = 0.0\nsamples = 3\nvalue = [3, 0]"] ;
698 -> 734 ;
735 [label="gini = 0.0\nsamples = 5\nvalue = [5, 0]"] ;
697 -> 735 ;
736 [label="gini = 0.0\nsamples = 7\nvalue = [7, 0]"] ;
634 -> 736 ;
737 [label="x[29856] <= 0.113\ngini = 0.36\nsamples = 17\nvalue = [13, 4]"] ;
633 -> 737 ;
738 [label="x[100360] <= 0.204\ngini = 0.305\nsamples = 16\nvalue = [13, 3]"] ;
737 -> 738 ;
739 [label="x[84064] <= 0.114\ngini = 0.231\nsamples = 15\nvalue = [13, 2]"] ;
738 -> 739 ;
740 [label="x[21080] <= 0.248\ngini = 0.133\nsamples = 14\nvalue = [13, 1]"] ;
739 -> 740 ;
741 [label="gini = 0.0\nsamples = 12\nvalue = [12, 0]"] ;
740 -> 741 ;
742 [label="gini = 0.5\nsamples = 2\nvalue = [1, 1]"] ;
740 -> 742 ;
743 [label="gini = 0.0\nsamples = 1\nvalue = [0, 1]"] ;
739 -> 743 ;
744 [label="gini = 0.0\nsamples = 1\nvalue = [0, 1]"] ;
738 -> 744 ;
745 [label="gini = 0.0\nsamples = 1\nvalue = [0, 1]"] ;
737 -> 745 ;
746 [label="x[160899] <= 0.314\ngini = 0.26\nsamples = 13\nvalue = [11, 2]"] ;
632 -> 746 ;
747 [label="x[93113] <= 0.157\ngini = 0.153\nsamples = 12\nvalue = [11, 1]"] ;
746 -> 747 ;
748 [label="gini = 0.0\nsamples = 11\nvalue = [11, 0]"] ;
747 -> 748 ;
749 [label="gini = 0.0\nsamples = 1\nvalue = [0, 1]"] ;
747 -> 749 ;
750 [label="gini = 0.0\nsamples = 1\nvalue = [0, 1]"] ;
746 -> 750 ;
751 [label="x[7540] <= 0.134\ngini = 0.153\nsamples = 12\nvalue = [11, 1]"] ;
631 -> 751 ;
752 [label="gini = 0.0\nsamples = 10\nvalue = [10, 0]"] ;
751 -> 752 ;
753 [label="gini = 0.5\nsamples = 2\nvalue = [1, 1]"] ;
751 -> 753 ;
754 [label="x[147826] <= 0.142\ngini = 0.165\nsamples = 22\nvalue = [20, 2]"] ;
630 -> 754 ;
755 [label="x[84644] <= 0.16\ngini = 0.095\nsamples = 20\nvalue = [19, 1]"] ;
754 -> 755 ;
756 [label="gini = 0.0\nsamples = 18\nvalue = [18, 0]"] ;
755 -> 756 ;
757 [label="gini = 0.5\nsamples = 2\nvalue = [1, 1]"] ;
755 -> 757 ;
758 [label="gini = 0.5\nsamples = 2\nvalue = [1, 1]"] ;
754 -> 758 ;
759 [label="x[117330] <= 0.145\ngini = 0.067\nsamples = 29\nvalue = [28, 1]"] ;
629 -> 759 ;
760 [label="gini = 0.0\nsamples = 27\nvalue = [27, 0]"] ;
759 -> 760 ;
761 [label="gini = 0.5\nsamples = 2\nvalue = [1, 1]"] ;
759 -> 761 ;
762 [label="x[97808] <= 0.037\ngini = 0.211\nsamples = 2761\nvalue = [331, 2430]"] ;
4 -> 762 ;
763 [label="x[97831] <= 0.085\ngini = 0.197\nsamples = 2729\nvalue = [303, 2426]"] ;
762 -> 763 ;
764 [label="x[68505] <= 0.056\ngini = 0.191\nsamples = 2713\nvalue = [290, 2423]"] ;
763 -> 764 ;
765 [label="x[32574] <= 0.045\ngini = 0.186\nsamples = 2703\nvalue = [281, 2422]"] ;
764 -> 765 ;
766 [label="x[46636] <= 0.071\ngini = 0.181\nsamples = 2688\nvalue = [271, 2417]"] ;
765 -> 766 ;
767 [label="x[81971] <= 0.043\ngini = 0.178\nsamples = 2680\nvalue = [264, 2416]"] ;
766 -> 767 ;
768 [label="x[67407] <= 0.05\ngini = 0.173\nsamples = 2667\nvalue = [255.0, 2412.0]"] ;
767 -> 768 ;
769 [label="x[37221] <= 0.152\ngini = 0.17\nsamples = 2662\nvalue = [250, 2412]"] ;
768 -> 769 ;
770 [label="x[660] <= 0.221\ngini = 0.241\nsamples = 1022\nvalue = [143, 879]"] ;
769 -> 770 ;
771 [label="x[120008] <= 0.11\ngini = 0.237\nsamples = 1019\nvalue = [140, 879]"] ;
770 -> 771 ;
772 [label="x[162744] <= 0.178\ngini = 0.233\nsamples = 1016\nvalue = [137, 879]"] ;
771 -> 772 ;
773 [label="x[156255] <= 0.066\ngini = 0.23\nsamples = 1013\nvalue = [134, 879]"] ;
772 -> 773 ;
774 [label="x[158436] <= 0.186\ngini = 0.226\nsamples = 1010\nvalue = [131, 879]"] ;
773 -> 774 ;
775 [label="x[47753] <= 0.065\ngini = 0.222\nsamples = 1007\nvalue = [128, 879]"] ;
774 -> 775 ;
776 [label="x[128737] <= 0.073\ngini = 0.217\nsamples = 1001\nvalue = [124, 877]"] ;
775 -> 776 ;
777 [label="x[90709] <= 0.119\ngini = 0.213\nsamples = 997\nvalue = [121, 876]"] ;
776 -> 777 ;
778 [label="x[22299] <= 0.16\ngini = 0.209\nsamples = 993\nvalue = [118, 875]"] ;
777 -> 778 ;
779 [label="x[99184] <= 0.089\ngini = 0.207\nsamples = 991\nvalue = [116, 875]"] ;
778 -> 779 ;
780 [label="x[21583] <= 0.135\ngini = 0.204\nsamples = 989\nvalue = [114, 875]"] ;
779 -> 780 ;
781 [label="x[71335] <= 0.275\ngini = 0.201\nsamples = 987\nvalue = [112, 875]"] ;
780 -> 781 ;
782 [label="x[103587] <= 0.116\ngini = 0.198\nsamples = 985\nvalue = [110, 875]"] ;
781 -> 782 ;
783 [label="x[73907] <= 0.217\ngini = 0.196\nsamples = 983\nvalue = [108, 875]"] ;
782 -> 783 ;
784 [label="x[138749] <= 0.173\ngini = 0.193\nsamples = 981\nvalue = [106, 875]"] ;
783 -> 784 ;
785 [label="gini = 0.19\nsamples = 979\nvalue = [104, 875]"] ;
784 -> 785 ;
786 [label="gini = 0.0\nsamples = 2\nvalue = [2, 0]"] ;
784 -> 786 ;
787 [label="gini = 0.0\nsamples = 2\nvalue = [2, 0]"] ;
783 -> 787 ;
788 [label="gini = 0.0\nsamples = 2\nvalue = [2, 0]"] ;
782 -> 788 ;
789 [label="gini = 0.0\nsamples = 2\nvalue = [2, 0]"] ;
781 -> 789 ;
790 [label="gini = 0.0\nsamples = 2\nvalue = [2, 0]"] ;
780 -> 790 ;
791 [label="gini = 0.0\nsamples = 2\nvalue = [2, 0]"] ;
779 -> 791 ;
792 [label="gini = 0.0\nsamples = 2\nvalue = [2, 0]"] ;
778 -> 792 ;
793 [label="x[37221] <= 0.128\ngini = 0.375\nsamples = 4\nvalue = [3, 1]"] ;
777 -> 793 ;
794 [label="gini = 0.0\nsamples = 3\nvalue = [3, 0]"] ;
793 -> 794 ;
795 [label="gini = 0.0\nsamples = 1\nvalue = [0, 1]"] ;
793 -> 795 ;
796 [label="x[124610] <= 0.082\ngini = 0.375\nsamples = 4\nvalue = [3, 1]"] ;
776 -> 796 ;
797 [label="gini = 0.0\nsamples = 3\nvalue = [3, 0]"] ;
796 -> 797 ;
798 [label="gini = 0.0\nsamples = 1\nvalue = [0, 1]"] ;
796 -> 798 ;
799 [label="x[37221] <= 0.105\ngini = 0.444\nsamples = 6\nvalue = [4, 2]"] ;
775 -> 799 ;
800 [label="gini = 0.0\nsamples = 3\nvalue = [3, 0]"] ;
799 -> 800 ;
801 [label="x[89677] <= 0.135\ngini = 0.444\nsamples = 3\nvalue = [1, 2]"] ;
799 -> 801 ;
802 [label="gini = 0.0\nsamples = 2\nvalue = [0, 2]"] ;
801 -> 802 ;
803 [label="gini = 0.0\nsamples = 1\nvalue = [1, 0]"] ;
801 -> 803 ;
804 [label="gini = 0.0\nsamples = 3\nvalue = [3, 0]"] ;
774 -> 804 ;
805 [label="gini = 0.0\nsamples = 3\nvalue = [3, 0]"] ;
773 -> 805 ;
806 [label="gini = 0.0\nsamples = 3\nvalue = [3, 0]"] ;
772 -> 806 ;
807 [label="gini = 0.0\nsamples = 3\nvalue = [3, 0]"] ;
771 -> 807 ;
808 [label="gini = 0.0\nsamples = 3\nvalue = [3, 0]"] ;
770 -> 808 ;
809 [label="x[128501] <= 0.102\ngini = 0.122\nsamples = 1640\nvalue = [107, 1533]"] ;
769 -> 809 ;
810 [label="x[40835] <= 0.105\ngini = 0.119\nsamples = 1637\nvalue = [104.0, 1533.0]"] ;
809 -> 810 ;
811 [label="x[89406] <= 0.073\ngini = 0.117\nsamples = 1635\nvalue = [102, 1533]"] ;
810 -> 811 ;
812 [label="x[66005] <= 0.199\ngini = 0.115\nsamples = 1633\nvalue = [100, 1533]"] ;
811 -> 812 ;
813 [label="x[6627] <= 0.071\ngini = 0.113\nsamples = 1631\nvalue = [98, 1533]"] ;
812 -> 813 ;
814 [label="x[136276] <= 0.167\ngini = 0.111\nsamples = 1628\nvalue = [96, 1532]"] ;
813 -> 814 ;
815 [label="x[69625] <= 0.212\ngini = 0.109\nsamples = 1625\nvalue = [94, 1531]"] ;
814 -> 815 ;
816 [label="x[53844] <= 0.275\ngini = 0.107\nsamples = 1622\nvalue = [92, 1530]"] ;
815 -> 816 ;
817 [label="x[131806] <= 0.119\ngini = 0.105\nsamples = 1619\nvalue = [90, 1529]"] ;
816 -> 817 ;
818 [label="x[135623] <= 0.145\ngini = 0.103\nsamples = 1616\nvalue = [88, 1528]"] ;
817 -> 818 ;
819 [label="x[39835] <= 0.156\ngini = 0.101\nsamples = 1613\nvalue = [86, 1527]"] ;
818 -> 819 ;
820 [label="x[70259] <= 0.095\ngini = 0.098\nsamples = 1606\nvalue = [83, 1523]"] ;
819 -> 820 ;
821 [label="x[33814] <= 0.097\ngini = 0.097\nsamples = 1605\nvalue = [82, 1523]"] ;
820 -> 821 ;
822 [label="x[70564] <= 0.163\ngini = 0.096\nsamples = 1604\nvalue = [81, 1523]"] ;
821 -> 822 ;
823 [label="x[37598] <= 0.379\ngini = 0.095\nsamples = 1603\nvalue = [80, 1523]"] ;
822 -> 823 ;
824 [label="gini = 0.094\nsamples = 1602\nvalue = [79, 1523]"] ;
823 -> 824 ;
825 [label="gini = 0.0\nsamples = 1\nvalue = [1, 0]"] ;
823 -> 825 ;
826 [label="gini = 0.0\nsamples = 1\nvalue = [1, 0]"] ;
822 -> 826 ;
827 [label="gini = 0.0\nsamples = 1\nvalue = [1, 0]"] ;
821 -> 827 ;
828 [label="gini = 0.0\nsamples = 1\nvalue = [1, 0]"] ;
820 -> 828 ;
829 [label="x[37221] <= 0.186\ngini = 0.49\nsamples = 7\nvalue = [3, 4]"] ;
819 -> 829 ;
830 [label="gini = 0.0\nsamples = 3\nvalue = [0, 3]"] ;
829 -> 830 ;
831 [label="x[39835] <= 0.516\ngini = 0.375\nsamples = 4\nvalue = [3, 1]"] ;
829 -> 831 ;
832 [label="gini = 0.0\nsamples = 3\nvalue = [3, 0]"] ;
831 -> 832 ;
833 [label="gini = 0.0\nsamples = 1\nvalue = [0, 1]"] ;
831 -> 833 ;
834 [label="x[125379] <= 0.147\ngini = 0.444\nsamples = 3\nvalue = [2, 1]"] ;
818 -> 834 ;
835 [label="gini = 0.0\nsamples = 2\nvalue = [2, 0]"] ;
834 -> 835 ;
836 [label="gini = 0.0\nsamples = 1\nvalue = [0, 1]"] ;
834 -> 836 ;
837 [label="x[158789] <= 0.1\ngini = 0.444\nsamples = 3\nvalue = [2, 1]"] ;
817 -> 837 ;
838 [label="gini = 0.5\nsamples = 2\nvalue = [1, 1]"] ;
837 -> 838 ;
839 [label="gini = 0.0\nsamples = 1\nvalue = [1, 0]"] ;
837 -> 839 ;
840 [label="x[88455] <= 0.161\ngini = 0.444\nsamples = 3\nvalue = [2, 1]"] ;
816 -> 840 ;
841 [label="gini = 0.5\nsamples = 2\nvalue = [1, 1]"] ;
840 -> 841 ;
842 [label="gini = 0.0\nsamples = 1\nvalue = [1, 0]"] ;
840 -> 842 ;
843 [label="x[69625] <= 0.436\ngini = 0.444\nsamples = 3\nvalue = [2, 1]"] ;
815 -> 843 ;
844 [label="gini = 0.5\nsamples = 2\nvalue = [1, 1]"] ;
843 -> 844 ;
845 [label="gini = 0.0\nsamples = 1\nvalue = [1, 0]"] ;
843 -> 845 ;
846 [label="x[91279] <= 0.29\ngini = 0.444\nsamples = 3\nvalue = [2, 1]"] ;
814 -> 846 ;
847 [label="gini = 0.0\nsamples = 1\nvalue = [1, 0]"] ;
846 -> 847 ;
848 [label="gini = 0.5\nsamples = 2\nvalue = [1, 1]"] ;
846 -> 848 ;
849 [label="x[24316] <= 0.083\ngini = 0.444\nsamples = 3\nvalue = [2, 1]"] ;
813 -> 849 ;
850 [label="gini = 0.5\nsamples = 2\nvalue = [1, 1]"] ;
849 -> 850 ;
851 [label="gini = 0.0\nsamples = 1\nvalue = [1, 0]"] ;
849 -> 851 ;
852 [label="gini = 0.0\nsamples = 2\nvalue = [2, 0]"] ;
812 -> 852 ;
853 [label="gini = 0.0\nsamples = 2\nvalue = [2, 0]"] ;
811 -> 853 ;
854 [label="gini = 0.0\nsamples = 2\nvalue = [2, 0]"] ;
810 -> 854 ;
855 [label="gini = 0.0\nsamples = 3\nvalue = [3, 0]"] ;
809 -> 855 ;
856 [label="gini = 0.0\nsamples = 5\nvalue = [5, 0]"] ;
768 -> 856 ;
857 [label="x[81971] <= 0.177\ngini = 0.426\nsamples = 13\nvalue = [9, 4]"] ;
767 -> 857 ;
858 [label="gini = 0.0\nsamples = 5\nvalue = [5, 0]"] ;
857 -> 858 ;
859 [label="x[165195] <= 0.09\ngini = 0.5\nsamples = 8\nvalue = [4, 4]"] ;
857 -> 859 ;
860 [label="x[81971] <= 0.258\ngini = 0.444\nsamples = 6\nvalue = [2, 4]"] ;
859 -> 860 ;
861 [label="gini = 0.0\nsamples = 2\nvalue = [0, 2]"] ;
860 -> 861 ;
862 [label="x[79111] <= 0.257\ngini = 0.5\nsamples = 4\nvalue = [2, 2]"] ;
860 -> 862 ;
863 [label="gini = 0.5\nsamples = 2\nvalue = [1, 1]"] ;
862 -> 863 ;
864 [label="gini = 0.5\nsamples = 2\nvalue = [1, 1]"] ;
862 -> 864 ;
865 [label="gini = 0.0\nsamples = 2\nvalue = [2, 0]"] ;
859 -> 865 ;
866 [label="x[84644] <= 0.175\ngini = 0.219\nsamples = 8\nvalue = [7, 1]"] ;
766 -> 866 ;
867 [label="gini = 0.0\nsamples = 7\nvalue = [7, 0]"] ;
866 -> 867 ;
868 [label="gini = 0.0\nsamples = 1\nvalue = [0, 1]"] ;
866 -> 868 ;
869 [label="x[37221] <= 0.17\ngini = 0.444\nsamples = 15\nvalue = [10, 5]"] ;
765 -> 869 ;
870 [label="x[160632] <= 0.077\ngini = 0.198\nsamples = 9\nvalue = [8, 1]"] ;
869 -> 870 ;
871 [label="gini = 0.0\nsamples = 7\nvalue = [7, 0]"] ;
870 -> 871 ;
872 [label="gini = 0.5\nsamples = 2\nvalue = [1, 1]"] ;
870 -> 872 ;
873 [label="x[32574] <= 0.212\ngini = 0.444\nsamples = 6\nvalue = [2, 4]"] ;
869 -> 873 ;
874 [label="x[161928] <= 0.099\ngini = 0.444\nsamples = 3\nvalue = [2, 1]"] ;
873 -> 874 ;
875 [label="gini = 0.0\nsamples = 1\nvalue = [1, 0]"] ;
874 -> 875 ;
876 [label="gini = 0.5\nsamples = 2\nvalue = [1, 1]"] ;
874 -> 876 ;
877 [label="gini = 0.0\nsamples = 3\nvalue = [0, 3]"] ;
873 -> 877 ;
878 [label="x[128208] <= 0.087\ngini = 0.18\nsamples = 10\nvalue = [9, 1]"] ;
764 -> 878 ;
879 [label="gini = 0.0\nsamples = 8\nvalue = [8, 0]"] ;
878 -> 879 ;
880 [label="gini = 0.5\nsamples = 2\nvalue = [1, 1]"] ;
878 -> 880 ;
881 [label="x[3984] <= 0.076\ngini = 0.305\nsamples = 16\nvalue = [13, 3]"] ;
763 -> 881 ;
882 [label="x[19214] <= 0.211\ngini = 0.231\nsamples = 15\nvalue = [13, 2]"] ;
881 -> 882 ;
883 [label="x[159159] <= 0.153\ngini = 0.133\nsamples = 14\nvalue = [13, 1]"] ;
882 -> 883 ;
884 [label="gini = 0.0\nsamples = 12\nvalue = [12, 0]"] ;
883 -> 884 ;
885 [label="gini = 0.5\nsamples = 2\nvalue = [1, 1]"] ;
883 -> 885 ;
886 [label="gini = 0.0\nsamples = 1\nvalue = [0, 1]"] ;
882 -> 886 ;
887 [label="gini = 0.0\nsamples = 1\nvalue = [0, 1]"] ;
881 -> 887 ;
888 [label="x[17473] <= 0.081\ngini = 0.219\nsamples = 32\nvalue = [28, 4]"] ;
762 -> 888 ;
889 [label="x[34593] <= 0.205\ngini = 0.124\nsamples = 30\nvalue = [28, 2]"] ;
888 -> 889 ;
890 [label="x[80905] <= 0.072\ngini = 0.067\nsamples = 29\nvalue = [28, 1]"] ;
889 -> 890 ;
891 [label="gini = 0.0\nsamples = 27\nvalue = [27, 0]"] ;
890 -> 891 ;
892 [label="gini = 0.5\nsamples = 2\nvalue = [1, 1]"] ;
890 -> 892 ;
893 [label="gini = 0.0\nsamples = 1\nvalue = [0, 1]"] ;
889 -> 893 ;
894 [label="gini = 0.0\nsamples = 2\nvalue = [0, 2]"] ;
888 -> 894 ;
895 [label="x[97808] <= 0.028\ngini = 0.192\nsamples = 3296\nvalue = [354, 2942]"] ;
3 -> 895 ;
896 [label="x[68505] <= 0.041\ngini = 0.18\nsamples = 3266\nvalue = [326, 2940]"] ;
895 -> 896 ;
897 [label="x[97831] <= 0.044\ngini = 0.174\nsamples = 3251\nvalue = [313, 2938]"] ;
896 -> 897 ;
898 [label="x[32645] <= 0.115\ngini = 0.168\nsamples = 3234\nvalue = [300, 2934]"] ;
897 -> 898 ;
899 [label="x[135435] <= 0.064\ngini = 0.276\nsamples = 897\nvalue = [148, 749]"] ;
898 -> 899 ;
900 [label="x[7216] <= 0.059\ngini = 0.267\nsamples = 888\nvalue = [141, 747]"] ;
899 -> 900 ;
901 [label="x[116720] <= 0.047\ngini = 0.262\nsamples = 884\nvalue = [137, 747]"] ;
900 -> 901 ;
902 [label="x[110433] <= 0.1\ngini = 0.256\nsamples = 877\nvalue = [132, 745]"] ;
901 -> 902 ;
903 [label="x[69238] <= 0.086\ngini = 0.252\nsamples = 874\nvalue = [129, 745]"] ;
902 -> 903 ;
904 [label="x[32562] <= 0.102\ngini = 0.239\nsamples = 849\nvalue = [118.0, 731.0]"] ;
903 -> 904 ;
905 [label="x[93270] <= 0.137\ngini = 0.232\nsamples = 843\nvalue = [113.0, 730.0]"] ;
904 -> 905 ;
906 [label="x[54431] <= 0.072\ngini = 0.228\nsamples = 840\nvalue = [110, 730]"] ;
905 -> 906 ;
907 [label="x[150938] <= 0.139\ngini = 0.223\nsamples = 837\nvalue = [107, 730]"] ;
906 -> 907 ;
908 [label="x[70306] <= 0.109\ngini = 0.218\nsamples = 834\nvalue = [104, 730]"] ;
907 -> 908 ;
909 [label="x[160808] <= 0.076\ngini = 0.211\nsamples = 826\nvalue = [99, 727]"] ;
908 -> 909 ;
910 [label="x[14161] <= 0.118\ngini = 0.206\nsamples = 822\nvalue = [96, 726]"] ;
909 -> 910 ;
911 [label="x[46636] <= 0.052\ngini = 0.202\nsamples = 818\nvalue = [93, 725]"] ;
910 -> 911 ;
912 [label="x[17133] <= 0.073\ngini = 0.197\nsamples = 814\nvalue = [90, 724]"] ;
911 -> 912 ;
913 [label="x[102412] <= 0.064\ngini = 0.192\nsamples = 810\nvalue = [87, 723]"] ;
912 -> 913 ;
914 [label="x[84143] <= 0.187\ngini = 0.188\nsamples = 808\nvalue = [85, 723]"] ;
913 -> 914 ;
915 [label="x[67144] <= 0.048\ngini = 0.185\nsamples = 806\nvalue = [83, 723]"] ;
914 -> 915 ;
916 [label="x[60046] <= 0.128\ngini = 0.181\nsamples = 804\nvalue = [81, 723]"] ;
915 -> 916 ;
917 [label="x[48071] <= 0.172\ngini = 0.178\nsamples = 802\nvalue = [79, 723]"] ;
916 -> 917 ;
918 [label="x[133669] <= 0.13\ngini = 0.174\nsamples = 800\nvalue = [77, 723]"] ;
917 -> 918 ;
919 [label="gini = 0.17\nsamples = 798\nvalue = [75, 723]"] ;
918 -> 919 ;
920 [label="gini = 0.0\nsamples = 2\nvalue = [2, 0]"] ;
918 -> 920 ;
921 [label="gini = 0.0\nsamples = 2\nvalue = [2, 0]"] ;
917 -> 921 ;
922 [label="gini = 0.0\nsamples = 2\nvalue = [2, 0]"] ;
916 -> 922 ;
923 [label="gini = 0.0\nsamples = 2\nvalue = [2, 0]"] ;
915 -> 923 ;
924 [label="gini = 0.0\nsamples = 2\nvalue = [2, 0]"] ;
914 -> 924 ;
925 [label="gini = 0.0\nsamples = 2\nvalue = [2, 0]"] ;
913 -> 925 ;
926 [label="x[55777] <= 0.148\ngini = 0.375\nsamples = 4\nvalue = [3, 1]"] ;
912 -> 926 ;
927 [label="gini = 0.0\nsamples = 3\nvalue = [3, 0]"] ;
926 -> 927 ;
928 [label="gini = 0.0\nsamples = 1\nvalue = [0, 1]"] ;
926 -> 928 ;
929 [label="x[93839] <= 0.096\ngini = 0.375\nsamples = 4\nvalue = [3, 1]"] ;
911 -> 929 ;
930 [label="gini = 0.0\nsamples = 2\nvalue = [2, 0]"] ;
929 -> 930 ;
931 [label="gini = 0.5\nsamples = 2\nvalue = [1, 1]"] ;
929 -> 931 ;
932 [label="x[31545] <= 0.085\ngini = 0.375\nsamples = 4\nvalue = [3, 1]"] ;
910 -> 932 ;
933 [label="gini = 0.0\nsamples = 2\nvalue = [2, 0]"] ;
932 -> 933 ;
934 [label="gini = 0.5\nsamples = 2\nvalue = [1, 1]"] ;
932 -> 934 ;
935 [label="x[16076] <= 0.102\ngini = 0.375\nsamples = 4\nvalue = [3, 1]"] ;
909 -> 935 ;
936 [label="gini = 0.0\nsamples = 2\nvalue = [2, 0]"] ;
935 -> 936 ;
937 [label="gini = 0.5\nsamples = 2\nvalue = [1, 1]"] ;
935 -> 937 ;
938 [label="x[125194] <= 0.069\ngini = 0.469\nsamples = 8\nvalue = [5, 3]"] ;
908 -> 938 ;
939 [label="x[118673] <= 0.104\ngini = 0.278\nsamples = 6\nvalue = [5, 1]"] ;
938 -> 939 ;
940 [label="gini = 0.0\nsamples = 4\nvalue = [4, 0]"] ;
939 -> 940 ;
941 [label="gini = 0.5\nsamples = 2\nvalue = [1, 1]"] ;
939 -> 941 ;
942 [label="gini = 0.0\nsamples = 2\nvalue = [0, 2]"] ;
938 -> 942 ;
943 [label="gini = 0.0\nsamples = 3\nvalue = [3, 0]"] ;
907 -> 943 ;
944 [label="gini = 0.0\nsamples = 3\nvalue = [3, 0]"] ;
906 -> 944 ;
945 [label="gini = 0.0\nsamples = 3\nvalue = [3, 0]"] ;
905 -> 945 ;
946 [label="x[111705] <= 0.083\ngini = 0.278\nsamples = 6\nvalue = [5, 1]"] ;
904 -> 946 ;
947 [label="gini = 0.0\nsamples = 5\nvalue = [5, 0]"] ;
946 -> 947 ;
948 [label="gini = 0.0\nsamples = 1\nvalue = [0, 1]"] ;
946 -> 948 ;
949 [label="x[105501] <= 0.061\ngini = 0.493\nsamples = 25\nvalue = [11.0, 14.0]"] ;
903 -> 949 ;
950 [label="x[138749] <= 0.069\ngini = 0.463\nsamples = 22\nvalue = [8, 14]"] ;
949 -> 950 ;
951 [label="x[69238] <= 0.144\ngini = 0.42\nsamples = 20\nvalue = [6, 14]"] ;
950 -> 951 ;
952 [label="x[69238] <= 0.12\ngini = 0.48\nsamples = 15\nvalue = [6, 9]"] ;
951 -> 952 ;
953 [label="x[114784] <= 0.068\ngini = 0.245\nsamples = 7\nvalue = [1, 6]"] ;
952 -> 953 ;
954 [label="gini = 0.0\nsamples = 6\nvalue = [0, 6]"] ;
953 -> 954 ;
955 [label="gini = 0.0\nsamples = 1\nvalue = [1, 0]"] ;
953 -> 955 ;
956 [label="x[60130] <= 0.06\ngini = 0.469\nsamples = 8\nvalue = [5, 3]"] ;
952 -> 956 ;
957 [label="x[4694] <= 0.066\ngini = 0.278\nsamples = 6\nvalue = [5, 1]"] ;
956 -> 957 ;
958 [label="gini = 0.0\nsamples = 5\nvalue = [5, 0]"] ;
957 -> 958 ;
959 [label="gini = 0.0\nsamples = 1\nvalue = [0, 1]"] ;
957 -> 959 ;
960 [label="gini = 0.0\nsamples = 2\nvalue = [0, 2]"] ;
956 -> 960 ;
961 [label="gini = 0.0\nsamples = 5\nvalue = [0, 5]"] ;
951 -> 961 ;
962 [label="gini = 0.0\nsamples = 2\nvalue = [2, 0]"] ;
950 -> 962 ;
963 [label="gini = 0.0\nsamples = 3\nvalue = [3, 0]"] ;
949 -> 963 ;
964 [label="gini = 0.0\nsamples = 3\nvalue = [3, 0]"] ;
902 -> 964 ;
965 [label="x[116720] <= 0.149\ngini = 0.408\nsamples = 7\nvalue = [5, 2]"] ;
901 -> 965 ;
966 [label="gini = 0.0\nsamples = 5\nvalue = [5, 0]"] ;
965 -> 966 ;
967 [label="gini = 0.0\nsamples = 2\nvalue = [0, 2]"] ;
965 -> 967 ;
968 [label="gini = 0.0\nsamples = 4\nvalue = [4, 0]"] ;
900 -> 968 ;
969 [label="x[59089] <= 0.051\ngini = 0.346\nsamples = 9\nvalue = [7, 2]"] ;
899 -> 969 ;
970 [label="gini = 0.0\nsamples = 7\nvalue = [7, 0]"] ;
969 -> 970 ;
971 [label="gini = 0.0\nsamples = 2\nvalue = [0, 2]"] ;
969 -> 971 ;
972 [label="x[46636] <= 0.052\ngini = 0.122\nsamples = 2337\nvalue = [152.0, 2185.0]"] ;
898 -> 972 ;
973 [label="x[69238] <= 0.167\ngini = 0.117\nsamples = 2327\nvalue = [145, 2182]"] ;
972 -> 973 ;
974 [label="x[105487] <= 0.118\ngini = 0.112\nsamples = 2314\nvalue = [138, 2176]"] ;
973 -> 974 ;
975 [label="x[11881] <= 0.149\ngini = 0.11\nsamples = 2311\nvalue = [135, 2176]"] ;
974 -> 975 ;
976 [label="x[47337] <= 0.195\ngini = 0.108\nsamples = 2308\nvalue = [132, 2176]"] ;
975 -> 976 ;
977 [label="x[148080] <= 0.096\ngini = 0.106\nsamples = 2304\nvalue = [129, 2175]"] ;
976 -> 977 ;
978 [label="x[7216] <= 0.217\ngini = 0.104\nsamples = 2302\nvalue = [127, 2175]"] ;
977 -> 978 ;
979 [label="x[59393] <= 0.155\ngini = 0.103\nsamples = 2300\nvalue = [125, 2175]"] ;
978 -> 979 ;
980 [label="x[6981] <= 0.143\ngini = 0.101\nsamples = 2298\nvalue = [123.0, 2175.0]"] ;
979 -> 980 ;
981 [label="x[111846] <= 0.091\ngini = 0.1\nsamples = 2296\nvalue = [121, 2175]"] ;
980 -> 981 ;
982 [label="x[122366] <= 0.201\ngini = 0.098\nsamples = 2294\nvalue = [119, 2175]"] ;
981 -> 982 ;
983 [label="x[136276] <= 0.092\ngini = 0.097\nsamples = 2292\nvalue = [117, 2175]"] ;
982 -> 983 ;
984 [label="x[146119] <= 0.146\ngini = 0.095\nsamples = 2290\nvalue = [115, 2175]"] ;
983 -> 984 ;
985 [label="x[53840] <= 0.274\ngini = 0.094\nsamples = 2288\nvalue = [113, 2175]"] ;
984 -> 985 ;
986 [label="x[143792] <= 0.184\ngini = 0.092\nsamples = 2286\nvalue = [111, 2175]"] ;
985 -> 986 ;
987 [label="x[380] <= 0.247\ngini = 0.09\nsamples = 2278\nvalue = [107, 2171]"] ;
986 -> 987 ;
988 [label="x[66198] <= 0.124\ngini = 0.087\nsamples = 2272\nvalue = [104, 2168]"] ;
987 -> 988 ;
989 [label="x[66032] <= 0.139\ngini = 0.086\nsamples = 2269\nvalue = [102, 2167]"] ;
988 -> 989 ;
990 [label="x[96530] <= 0.065\ngini = 0.084\nsamples = 2266\nvalue = [100, 2166]"] ;
989 -> 990 ;
991 [label="x[54728] <= 0.161\ngini = 0.083\nsamples = 2263\nvalue = [98, 2165]"] ;
990 -> 991 ;
992 [label="gini = 0.081\nsamples = 2260\nvalue = [96, 2164]"] ;
991 -> 992 ;
993 [label="gini = 0.444\nsamples = 3\nvalue = [2, 1]"] ;
991 -> 993 ;
994 [label="x[79918] <= 0.211\ngini = 0.444\nsamples = 3\nvalue = [2, 1]"] ;
990 -> 994 ;
995 [label="gini = 0.0\nsamples = 2\nvalue = [2, 0]"] ;
994 -> 995 ;
996 [label="gini = 0.0\nsamples = 1\nvalue = [0, 1]"] ;
994 -> 996 ;
997 [label="x[23273] <= 0.172\ngini = 0.444\nsamples = 3\nvalue = [2, 1]"] ;
989 -> 997 ;
998 [label="gini = 0.5\nsamples = 2\nvalue = [1, 1]"] ;
997 -> 998 ;
999 [label="gini = 0.0\nsamples = 1\nvalue = [1, 0]"] ;
997 -> 999 ;
1000 [label="x[56120] <= 0.133\ngini = 0.444\nsamples = 3\nvalue = [2, 1]"] ;
988 -> 1000 ;
1001 [label="gini = 0.0\nsamples = 2\nvalue = [2, 0]"] ;
1000 -> 1001 ;
1002 [label="gini = 0.0\nsamples = 1\nvalue = [0, 1]"] ;
1000 -> 1002 ;
1003 [label="x[380] <= 0.269\ngini = 0.5\nsamples = 6\nvalue = [3, 3]"] ;
987 -> 1003 ;
1004 [label="gini = 0.0\nsamples = 2\nvalue = [2, 0]"] ;
1003 -> 1004 ;
1005 [label="x[32645] <= 0.253\ngini = 0.375\nsamples = 4\nvalue = [1, 3]"] ;
1003 -> 1005 ;
1006 [label="gini = 0.0\nsamples = 3\nvalue = [0, 3]"] ;
1005 -> 1006 ;
1007 [label="gini = 0.0\nsamples = 1\nvalue = [1, 0]"] ;
1005 -> 1007 ;
1008 [label="x[67911] <= 0.173\ngini = 0.5\nsamples = 8\nvalue = [4, 4]"] ;
986 -> 1008 ;
1009 [label="x[80430] <= 0.163\ngini = 0.49\nsamples = 7\nvalue = [3, 4]"] ;
1008 -> 1009 ;
1010 [label="x[128053] <= 0.161\ngini = 0.444\nsamples = 6\nvalue = [2, 4]"] ;
1009 -> 1010 ;
1011 [label="x[21827] <= 0.177\ngini = 0.32\nsamples = 5\nvalue = [1, 4]"] ;
1010 -> 1011 ;
1012 [label="gini = 0.0\nsamples = 3\nvalue = [0, 3]"] ;
1011 -> 1012 ;
1013 [label="gini = 0.5\nsamples = 2\nvalue = [1, 1]"] ;
1011 -> 1013 ;
1014 [label="gini = 0.0\nsamples = 1\nvalue = [1, 0]"] ;
1010 -> 1014 ;
1015 [label="gini = 0.0\nsamples = 1\nvalue = [1, 0]"] ;
1009 -> 1015 ;
1016 [label="gini = 0.0\nsamples = 1\nvalue = [1, 0]"] ;
1008 -> 1016 ;
1017 [label="gini = 0.0\nsamples = 2\nvalue = [2, 0]"] ;
985 -> 1017 ;
1018 [label="gini = 0.0\nsamples = 2\nvalue = [2, 0]"] ;
984 -> 1018 ;
1019 [label="gini = 0.0\nsamples = 2\nvalue = [2, 0]"] ;
983 -> 1019 ;
1020 [label="gini = 0.0\nsamples = 2\nvalue = [2, 0]"] ;
982 -> 1020 ;
1021 [label="gini = 0.0\nsamples = 2\nvalue = [2, 0]"] ;
981 -> 1021 ;
1022 [label="gini = 0.0\nsamples = 2\nvalue = [2, 0]"] ;
980 -> 1022 ;
1023 [label="gini = 0.0\nsamples = 2\nvalue = [2, 0]"] ;
979 -> 1023 ;
1024 [label="gini = 0.0\nsamples = 2\nvalue = [2, 0]"] ;
978 -> 1024 ;
1025 [label="gini = 0.0\nsamples = 2\nvalue = [2, 0]"] ;
977 -> 1025 ;
1026 [label="x[46289] <= 0.163\ngini = 0.375\nsamples = 4\nvalue = [3, 1]"] ;
976 -> 1026 ;
1027 [label="gini = 0.0\nsamples = 3\nvalue = [3, 0]"] ;
1026 -> 1027 ;
1028 [label="gini = 0.0\nsamples = 1\nvalue = [0, 1]"] ;
1026 -> 1028 ;
1029 [label="gini = 0.0\nsamples = 3\nvalue = [3, 0]"] ;
975 -> 1029 ;
1030 [label="gini = 0.0\nsamples = 3\nvalue = [3, 0]"] ;
974 -> 1030 ;
1031 [label="x[69238] <= 0.211\ngini = 0.497\nsamples = 13\nvalue = [7, 6]"] ;
973 -> 1031 ;
1032 [label="x[101259] <= 0.15\ngini = 0.375\nsamples = 8\nvalue = [6, 2]"] ;
1031 -> 1032 ;
1033 [label="x[145876] <= 0.124\ngini = 0.245\nsamples = 7\nvalue = [6, 1]"] ;
1032 -> 1033 ;
1034 [label="gini = 0.0\nsamples = 6\nvalue = [6, 0]"] ;
1033 -> 1034 ;
1035 [label="gini = 0.0\nsamples = 1\nvalue = [0, 1]"] ;
1033 -> 1035 ;
1036 [label="gini = 0.0\nsamples = 1\nvalue = [0, 1]"] ;
1032 -> 1036 ;
1037 [label="x[69238] <= 0.275\ngini = 0.32\nsamples = 5\nvalue = [1, 4]"] ;
1031 -> 1037 ;
1038 [label="gini = 0.0\nsamples = 4\nvalue = [0, 4]"] ;
1037 -> 1038 ;
1039 [label="gini = 0.0\nsamples = 1\nvalue = [1, 0]"] ;
1037 -> 1039 ;
1040 [label="x[23345] <= 0.076\ngini = 0.42\nsamples = 10\nvalue = [7, 3]"] ;
972 -> 1040 ;
1041 [label="x[3387] <= 0.153\ngini = 0.219\nsamples = 8\nvalue = [7, 1]"] ;
1040 -> 1041 ;
1042 [label="gini = 0.0\nsamples = 7\nvalue = [7, 0]"] ;
1041 -> 1042 ;
1043 [label="gini = 0.0\nsamples = 1\nvalue = [0, 1]"] ;
1041 -> 1043 ;
1044 [label="gini = 0.0\nsamples = 2\nvalue = [0, 2]"] ;
1040 -> 1044 ;
1045 [label="x[147222] <= 0.074\ngini = 0.36\nsamples = 17\nvalue = [13, 4]"] ;
897 -> 1045 ;
1046 [label="x[9276] <= 0.091\ngini = 0.305\nsamples = 16\nvalue = [13, 3]"] ;
1045 -> 1046 ;
1047 [label="x[18792] <= 0.154\ngini = 0.231\nsamples = 15\nvalue = [13, 2]"] ;
1046 -> 1047 ;
1048 [label="x[79781] <= 0.108\ngini = 0.142\nsamples = 13\nvalue = [12, 1]"] ;
1047 -> 1048 ;
1049 [label="gini = 0.0\nsamples = 11\nvalue = [11, 0]"] ;
1048 -> 1049 ;
1050 [label="gini = 0.5\nsamples = 2\nvalue = [1, 1]"] ;
1048 -> 1050 ;
1051 [label="gini = 0.5\nsamples = 2\nvalue = [1, 1]"] ;
1047 -> 1051 ;
1052 [label="gini = 0.0\nsamples = 1\nvalue = [0, 1]"] ;
1046 -> 1052 ;
1053 [label="gini = 0.0\nsamples = 1\nvalue = [0, 1]"] ;
1045 -> 1053 ;
1054 [label="x[144201] <= 0.069\ngini = 0.231\nsamples = 15\nvalue = [13, 2]"] ;
896 -> 1054 ;
1055 [label="x[108531] <= 0.267\ngini = 0.133\nsamples = 14\nvalue = [13, 1]"] ;
1054 -> 1055 ;
1056 [label="gini = 0.0\nsamples = 12\nvalue = [12, 0]"] ;
1055 -> 1056 ;
1057 [label="gini = 0.5\nsamples = 2\nvalue = [1, 1]"] ;
1055 -> 1057 ;
1058 [label="gini = 0.0\nsamples = 1\nvalue = [0, 1]"] ;
1054 -> 1058 ;
1059 [label="x[119930] <= 0.092\ngini = 0.124\nsamples = 30\nvalue = [28, 2]"] ;
895 -> 1059 ;
1060 [label="x[33662] <= 0.104\ngini = 0.067\nsamples = 29\nvalue = [28, 1]"] ;
1059 -> 1060 ;
1061 [label="gini = 0.0\nsamples = 27\nvalue = [27, 0]"] ;
1060 -> 1061 ;
1062 [label="gini = 0.5\nsamples = 2\nvalue = [1, 1]"] ;
1060 -> 1062 ;
1063 [label="gini = 0.0\nsamples = 1\nvalue = [0, 1]"] ;
1059 -> 1063 ;
1064 [label="x[37220] <= 0.172\ngini = 0.045\nsamples = 8237\nvalue = [8047, 190]"] ;
2 -> 1064 ;
1065 [label="x[37221] <= 0.102\ngini = 0.041\nsamples = 8140\nvalue = [7970, 170]"] ;
1064 -> 1065 ;
1066 [label="x[61509] <= 0.077\ngini = 0.038\nsamples = 8077\nvalue = [7920, 157]"] ;
1065 -> 1066 ;
1067 [label="x[73093] <= 0.128\ngini = 0.035\nsamples = 7986\nvalue = [7843, 143]"] ;
1066 -> 1067 ;
1068 [label="x[141773] <= 0.088\ngini = 0.034\nsamples = 7971\nvalue = [7833, 138]"] ;
1067 -> 1068 ;
1069 [label="x[62840] <= 0.144\ngini = 0.034\nsamples = 7968\nvalue = [7832, 136]"] ;
1068 -> 1069 ;
1070 [label="x[117272] <= 0.124\ngini = 0.033\nsamples = 7965\nvalue = [7831, 134]"] ;
1069 -> 1070 ;
1071 [label="x[69175] <= 0.252\ngini = 0.033\nsamples = 7962\nvalue = [7830, 132]"] ;
1070 -> 1071 ;
1072 [label="x[72539] <= 0.1\ngini = 0.032\nsamples = 7959\nvalue = [7829, 130]"] ;
1071 -> 1072 ;
1073 [label="x[64905] <= 0.193\ngini = 0.068\nsamples = 2083\nvalue = [2010, 73]"] ;
1072 -> 1073 ;
1074 [label="x[38779] <= 0.257\ngini = 0.066\nsamples = 2080\nvalue = [2009, 71]"] ;
1073 -> 1074 ;
1075 [label="x[48813] <= 0.121\ngini = 0.064\nsamples = 2077\nvalue = [2008, 69]"] ;
1074 -> 1075 ;
1076 [label="x[113422] <= 0.137\ngini = 0.062\nsamples = 2069\nvalue = [2003, 66]"] ;
1075 -> 1076 ;
1077 [label="x[80345] <= 0.354\ngini = 0.061\nsamples = 2068\nvalue = [2003, 65]"] ;
1076 -> 1077 ;
1078 [label="x[161136] <= 0.178\ngini = 0.06\nsamples = 2067\nvalue = [2003, 64]"] ;
1077 -> 1078 ;
1079 [label="x[157999] <= 0.21\ngini = 0.059\nsamples = 2066\nvalue = [2003, 63]"] ;
1078 -> 1079 ;
1080 [label="x[6789] <= 0.128\ngini = 0.058\nsamples = 2065\nvalue = [2003, 62]"] ;
1079 -> 1080 ;
1081 [label="x[99606] <= 0.098\ngini = 0.057\nsamples = 2064\nvalue = [2003, 61]"] ;
1080 -> 1081 ;
1082 [label="x[160637] <= 0.101\ngini = 0.056\nsamples = 2063\nvalue = [2003, 60]"] ;
1081 -> 1082 ;
1083 [label="x[26077] <= 0.105\ngini = 0.056\nsamples = 2062\nvalue = [2003, 59]"] ;
1082 -> 1083 ;
1084 [label="x[125268] <= 0.399\ngini = 0.055\nsamples = 2061\nvalue = [2003, 58]"] ;
1083 -> 1084 ;
1085 [label="x[23672] <= 0.095\ngini = 0.054\nsamples = 2060\nvalue = [2003, 57]"] ;
1084 -> 1085 ;
1086 [label="x[118700] <= 0.087\ngini = 0.053\nsamples = 2059\nvalue = [2003, 56]"] ;
1085 -> 1086 ;
1087 [label="x[46481] <= 0.128\ngini = 0.052\nsamples = 2058\nvalue = [2003, 55]"] ;
1086 -> 1087 ;
1088 [label="x[109531] <= 0.096\ngini = 0.051\nsamples = 2057\nvalue = [2003, 54]"] ;
1087 -> 1088 ;
1089 [label="gini = 0.05\nsamples = 2056\nvalue = [2003, 53]"] ;
1088 -> 1089 ;
1090 [label="gini = 0.0\nsamples = 1\nvalue = [0, 1]"] ;
1088 -> 1090 ;
1091 [label="gini = 0.0\nsamples = 1\nvalue = [0, 1]"] ;
1087 -> 1091 ;
1092 [label="gini = 0.0\nsamples = 1\nvalue = [0, 1]"] ;
1086 -> 1092 ;
1093 [label="gini = 0.0\nsamples = 1\nvalue = [0, 1]"] ;
1085 -> 1093 ;
1094 [label="gini = 0.0\nsamples = 1\nvalue = [0, 1]"] ;
1084 -> 1094 ;
1095 [label="gini = 0.0\nsamples = 1\nvalue = [0, 1]"] ;
1083 -> 1095 ;
1096 [label="gini = 0.0\nsamples = 1\nvalue = [0, 1]"] ;
1082 -> 1096 ;
1097 [label="gini = 0.0\nsamples = 1\nvalue = [0, 1]"] ;
1081 -> 1097 ;
1098 [label="gini = 0.0\nsamples = 1\nvalue = [0, 1]"] ;
1080 -> 1098 ;
1099 [label="gini = 0.0\nsamples = 1\nvalue = [0, 1]"] ;
1079 -> 1099 ;
1100 [label="gini = 0.0\nsamples = 1\nvalue = [0, 1]"] ;
1078 -> 1100 ;
1101 [label="gini = 0.0\nsamples = 1\nvalue = [0, 1]"] ;
1077 -> 1101 ;
1102 [label="gini = 0.0\nsamples = 1\nvalue = [0, 1]"] ;
1076 -> 1102 ;
1103 [label="x[56263] <= 0.069\ngini = 0.469\nsamples = 8\nvalue = [5, 3]"] ;
1075 -> 1103 ;
1104 [label="x[52702] <= 0.133\ngini = 0.49\nsamples = 7\nvalue = [4, 3]"] ;
1103 -> 1104 ;
1105 [label="x[30431] <= 0.07\ngini = 0.5\nsamples = 6\nvalue = [3, 3]"] ;
1104 -> 1105 ;
1106 [label="x[85968] <= 0.095\ngini = 0.5\nsamples = 4\nvalue = [2, 2]"] ;
1105 -> 1106 ;
1107 [label="gini = 0.5\nsamples = 2\nvalue = [1, 1]"] ;
1106 -> 1107 ;
1108 [label="gini = 0.5\nsamples = 2\nvalue = [1, 1]"] ;
1106 -> 1108 ;
1109 [label="gini = 0.5\nsamples = 2\nvalue = [1, 1]"] ;
1105 -> 1109 ;
1110 [label="gini = 0.0\nsamples = 1\nvalue = [1, 0]"] ;
1104 -> 1110 ;
1111 [label="gini = 0.0\nsamples = 1\nvalue = [1, 0]"] ;
1103 -> 1111 ;
1112 [label="x[66589] <= 0.112\ngini = 0.444\nsamples = 3\nvalue = [1, 2]"] ;
1074 -> 1112 ;
1113 [label="gini = 0.0\nsamples = 2\nvalue = [0, 2]"] ;
1112 -> 1113 ;
1114 [label="gini = 0.0\nsamples = 1\nvalue = [1, 0]"] ;
1112 -> 1114 ;
1115 [label="x[80881] <= 0.061\ngini = 0.444\nsamples = 3\nvalue = [1, 2]"] ;
1073 -> 1115 ;
1116 [label="gini = 0.0\nsamples = 1\nvalue = [0, 1]"] ;
1115 -> 1116 ;
1117 [label="gini = 0.5\nsamples = 2\nvalue = [1, 1]"] ;
1115 -> 1117 ;
1118 [label="x[136717] <= 0.128\ngini = 0.019\nsamples = 5876\nvalue = [5819.0, 57.0]"] ;
1072 -> 1118 ;
1119 [label="x[122691] <= 0.365\ngini = 0.019\nsamples = 5875\nvalue = [5819, 56]"] ;
1118 -> 1119 ;
1120 [label="x[21335] <= 0.13\ngini = 0.019\nsamples = 5874\nvalue = [5819, 55]"] ;
1119 -> 1120 ;
1121 [label="x[7221] <= 0.404\ngini = 0.018\nsamples = 5873\nvalue = [5819, 54]"] ;
1120 -> 1121 ;
1122 [label="x[161345] <= 0.34\ngini = 0.018\nsamples = 5872\nvalue = [5819, 53]"] ;
1121 -> 1122 ;
1123 [label="x[80938] <= 0.377\ngini = 0.018\nsamples = 5871\nvalue = [5819.0, 52.0]"] ;
1122 -> 1123 ;
1124 [label="x[76558] <= 0.178\ngini = 0.017\nsamples = 5870\nvalue = [5819, 51]"] ;
1123 -> 1124 ;
1125 [label="x[4781] <= 0.198\ngini = 0.017\nsamples = 5869\nvalue = [5819, 50]"] ;
1124 -> 1125 ;
1126 [label="x[81676] <= 0.287\ngini = 0.017\nsamples = 5868\nvalue = [5819.0, 49.0]"] ;
1125 -> 1126 ;
1127 [label="x[35971] <= 0.313\ngini = 0.016\nsamples = 5867\nvalue = [5819, 48]"] ;
1126 -> 1127 ;
1128 [label="x[117719] <= 0.144\ngini = 0.016\nsamples = 5866\nvalue = [5819.0, 47.0]"] ;
1127 -> 1128 ;
1129 [label="x[145998] <= 0.184\ngini = 0.016\nsamples = 5865\nvalue = [5819, 46]"] ;
1128 -> 1129 ;
1130 [label="x[63765] <= 0.207\ngini = 0.015\nsamples = 5864\nvalue = [5819, 45]"] ;
1129 -> 1130 ;
1131 [label="x[38546] <= 0.163\ngini = 0.015\nsamples = 5863\nvalue = [5819, 44]"] ;
1130 -> 1131 ;
1132 [label="x[77035] <= 0.386\ngini = 0.015\nsamples = 5862\nvalue = [5819, 43]"] ;
1131 -> 1132 ;
1133 [label="x[31744] <= 0.37\ngini = 0.014\nsamples = 5861\nvalue = [5819, 42]"] ;
1132 -> 1133 ;
1134 [label="gini = 0.014\nsamples = 5860\nvalue = [5819, 41]"] ;
1133 -> 1134 ;
1135 [label="gini = 0.0\nsamples = 1\nvalue = [0, 1]"] ;
1133 -> 1135 ;
1136 [label="gini = 0.0\nsamples = 1\nvalue = [0, 1]"] ;
1132 -> 1136 ;
1137 [label="gini = 0.0\nsamples = 1\nvalue = [0, 1]"] ;
1131 -> 1137 ;
1138 [label="gini = 0.0\nsamples = 1\nvalue = [0, 1]"] ;
1130 -> 1138 ;
1139 [label="gini = 0.0\nsamples = 1\nvalue = [0, 1]"] ;
1129 -> 1139 ;
1140 [label="gini = 0.0\nsamples = 1\nvalue = [0, 1]"] ;
1128 -> 1140 ;
1141 [label="gini = 0.0\nsamples = 1\nvalue = [0, 1]"] ;
1127 -> 1141 ;
1142 [label="gini = 0.0\nsamples = 1\nvalue = [0, 1]"] ;
1126 -> 1142 ;
1143 [label="gini = 0.0\nsamples = 1\nvalue = [0, 1]"] ;
1125 -> 1143 ;
1144 [label="gini = 0.0\nsamples = 1\nvalue = [0, 1]"] ;
1124 -> 1144 ;
1145 [label="gini = 0.0\nsamples = 1\nvalue = [0, 1]"] ;
1123 -> 1145 ;
1146 [label="gini = 0.0\nsamples = 1\nvalue = [0, 1]"] ;
1122 -> 1146 ;
1147 [label="gini = 0.0\nsamples = 1\nvalue = [0, 1]"] ;
1121 -> 1147 ;
1148 [label="gini = 0.0\nsamples = 1\nvalue = [0, 1]"] ;
1120 -> 1148 ;
1149 [label="gini = 0.0\nsamples = 1\nvalue = [0, 1]"] ;
1119 -> 1149 ;
1150 [label="gini = 0.0\nsamples = 1\nvalue = [0, 1]"] ;
1118 -> 1150 ;
1151 [label="x[107747] <= 0.14\ngini = 0.444\nsamples = 3\nvalue = [1, 2]"] ;
1071 -> 1151 ;
1152 [label="gini = 0.0\nsamples = 1\nvalue = [0, 1]"] ;
1151 -> 1152 ;
1153 [label="gini = 0.5\nsamples = 2\nvalue = [1, 1]"] ;
1151 -> 1153 ;
1154 [label="x[45757] <= 0.082\ngini = 0.444\nsamples = 3\nvalue = [1, 2]"] ;
1070 -> 1154 ;
1155 [label="gini = 0.5\nsamples = 2\nvalue = [1, 1]"] ;
1154 -> 1155 ;
1156 [label="gini = 0.0\nsamples = 1\nvalue = [0, 1]"] ;
1154 -> 1156 ;
1157 [label="x[45898] <= 0.245\ngini = 0.444\nsamples = 3\nvalue = [1, 2]"] ;
1069 -> 1157 ;
1158 [label="gini = 0.5\nsamples = 2\nvalue = [1, 1]"] ;
1157 -> 1158 ;
1159 [label="gini = 0.0\nsamples = 1\nvalue = [0, 1]"] ;
1157 -> 1159 ;
1160 [label="x[104470] <= 0.07\ngini = 0.444\nsamples = 3\nvalue = [1, 2]"] ;
1068 -> 1160 ;
1161 [label="gini = 0.5\nsamples = 2\nvalue = [1, 1]"] ;
1160 -> 1161 ;
1162 [label="gini = 0.0\nsamples = 1\nvalue = [0, 1]"] ;
1160 -> 1162 ;
1163 [label="x[62544] <= 0.191\ngini = 0.444\nsamples = 15\nvalue = [10, 5]"] ;
1067 -> 1163 ;
1164 [label="x[110497] <= 0.128\ngini = 0.408\nsamples = 14\nvalue = [10, 4]"] ;
1163 -> 1164 ;
1165 [label="x[99236] <= 0.2\ngini = 0.355\nsamples = 13\nvalue = [10, 3]"] ;
1164 -> 1165 ;
1166 [label="x[68213] <= 0.219\ngini = 0.278\nsamples = 12\nvalue = [10, 2]"] ;
1165 -> 1166 ;
1167 [label="x[23208] <= 0.121\ngini = 0.18\nsamples = 10\nvalue = [9, 1]"] ;
1166 -> 1167 ;
1168 [label="gini = 0.0\nsamples = 8\nvalue = [8, 0]"] ;
1167 -> 1168 ;
1169 [label="gini = 0.5\nsamples = 2\nvalue = [1, 1]"] ;
1167 -> 1169 ;
1170 [label="gini = 0.5\nsamples = 2\nvalue = [1, 1]"] ;
1166 -> 1170 ;
1171 [label="gini = 0.0\nsamples = 1\nvalue = [0, 1]"] ;
1165 -> 1171 ;
1172 [label="gini = 0.0\nsamples = 1\nvalue = [0, 1]"] ;
1164 -> 1172 ;
1173 [label="gini = 0.0\nsamples = 1\nvalue = [0, 1]"] ;
1163 -> 1173 ;
1174 [label="x[138080] <= 0.078\ngini = 0.26\nsamples = 91\nvalue = [77, 14]"] ;
1066 -> 1174 ;
1175 [label="x[121232] <= 0.185\ngini = 0.233\nsamples = 89\nvalue = [77, 12]"] ;
1174 -> 1175 ;
1176 [label="x[55536] <= 0.125\ngini = 0.219\nsamples = 88\nvalue = [77, 11]"] ;
1175 -> 1176 ;
1177 [label="x[91544] <= 0.096\ngini = 0.203\nsamples = 87\nvalue = [77, 10]"] ;
1176 -> 1177 ;
1178 [label="x[135342] <= 0.233\ngini = 0.187\nsamples = 86\nvalue = [77, 9]"] ;
1177 -> 1178 ;
1179 [label="x[160899] <= 0.438\ngini = 0.171\nsamples = 85\nvalue = [77, 8]"] ;
1178 -> 1179 ;
1180 [label="x[85281] <= 0.55\ngini = 0.153\nsamples = 84\nvalue = [77, 7]"] ;
1179 -> 1180 ;
1181 [label="x[72539] <= 0.062\ngini = 0.134\nsamples = 83\nvalue = [77, 6]"] ;
1180 -> 1181 ;
1182 [label="x[65004] <= 0.093\ngini = 0.5\nsamples = 4\nvalue = [2, 2]"] ;
1181 -> 1182 ;
1183 [label="gini = 0.5\nsamples = 2\nvalue = [1, 1]"] ;
1182 -> 1183 ;
1184 [label="gini = 0.5\nsamples = 2\nvalue = [1, 1]"] ;
1182 -> 1184 ;
1185 [label="x[54297] <= 0.242\ngini = 0.096\nsamples = 79\nvalue = [75, 4]"] ;
1181 -> 1185 ;
1186 [label="x[76426] <= 0.134\ngini = 0.075\nsamples = 77\nvalue = [74, 3]"] ;
1185 -> 1186 ;
1187 [label="x[124610] <= 0.07\ngini = 0.052\nsamples = 75\nvalue = [73, 2]"] ;
1186 -> 1187 ;
1188 [label="x[47873] <= 0.198\ngini = 0.027\nsamples = 73\nvalue = [72, 1]"] ;
1187 -> 1188 ;
1189 [label="gini = 0.0\nsamples = 71\nvalue = [71, 0]"] ;
1188 -> 1189 ;
1190 [label="gini = 0.5\nsamples = 2\nvalue = [1, 1]"] ;
1188 -> 1190 ;
1191 [label="gini = 0.5\nsamples = 2\nvalue = [1, 1]"] ;
1187 -> 1191 ;
1192 [label="gini = 0.5\nsamples = 2\nvalue = [1, 1]"] ;
1186 -> 1192 ;
1193 [label="gini = 0.5\nsamples = 2\nvalue = [1, 1]"] ;
1185 -> 1193 ;
1194 [label="gini = 0.0\nsamples = 1\nvalue = [0, 1]"] ;
1180 -> 1194 ;
1195 [label="gini = 0.0\nsamples = 1\nvalue = [0, 1]"] ;
1179 -> 1195 ;
1196 [label="gini = 0.0\nsamples = 1\nvalue = [0, 1]"] ;
1178 -> 1196 ;
1197 [label="gini = 0.0\nsamples = 1\nvalue = [0, 1]"] ;
1177 -> 1197 ;
1198 [label="gini = 0.0\nsamples = 1\nvalue = [0, 1]"] ;
1176 -> 1198 ;
1199 [label="gini = 0.0\nsamples = 1\nvalue = [0, 1]"] ;
1175 -> 1199 ;
1200 [label="gini = 0.0\nsamples = 2\nvalue = [0, 2]"] ;
1174 -> 1200 ;
1201 [label="x[39433] <= 0.115\ngini = 0.328\nsamples = 63\nvalue = [50, 13]"] ;
1065 -> 1201 ;
1202 [label="x[92752] <= 0.227\ngini = 0.312\nsamples = 62\nvalue = [50, 12]"] ;
1201 -> 1202 ;
1203 [label="x[119788] <= 0.098\ngini = 0.296\nsamples = 61\nvalue = [50, 11]"] ;
1202 -> 1203 ;
1204 [label="x[37221] <= 0.152\ngini = 0.278\nsamples = 60\nvalue = [50, 10]"] ;
1203 -> 1204 ;
1205 [label="x[37221] <= 0.146\ngini = 0.366\nsamples = 29\nvalue = [22, 7]"] ;
1204 -> 1205 ;
1206 [label="x[113717] <= 0.106\ngini = 0.298\nsamples = 22\nvalue = [18, 4]"] ;
1205 -> 1206 ;
